-4.680701348576276066e-01
-1.143791387686524663e+00
-8.188637998001742357e-02
-4.279067586287434999e-01
7.073219412879475088e-02
-7.426765879367876189e-02
3.119388846645181346e-01
-5.652869204170334338e-01
-1.036020911880464190e+00
-2.387117646303129059e-01
3.585429692138691338e-01
-6.524322977044652028e-01
2.509343685006306668e-01
2.785311423326355396e-01
-2.529548436992919980e-01
-1.655344003271503217e+00
5.768894910882427229e-01
6.273197050825689569e-01
-5.375105487263406312e-01
5.126469957320174409e-01
-8.398415240466443610e-01
-8.660389121483875741e-01
-2.185644002423829946e-01
-5.776865327103682113e-02
-1.644754072607425233e+00
5.960134210793141540e-02
5.739817859748290729e-01
2.588192360555292004e-01
9.750357290516005471e-02
1.064539117033475590e-01
-4.816684345646147780e-01
-9.178545182569479710e-01
-1.013605629876373149e+00
2.966915556938955478e-01
-9.583633704696153943e-02
6.588152797583538001e-02
6.287551706980172295e-01
2.884026983058676774e-01
-3.162418309817079942e-01
2.842770766364499102e-01
-1.352503183255664210e+00
-8.191410194942021494e-01
-5.735044069172705594e-01
-4.054205039813945533e+00
-7.558776784071893351e-01
5.008558214999832003e+00
-8.252634849255360283e-01
-8.444672671402698727e-01
4.782108459393127897e-01
-3.636273790354802027e-01
-4.177603650330030227e+00
-8.762590912386827302e-01
-1.141337439988520108e-01
-3.771962842625011247e-01
-4.409170935025035765e-01
-9.419183600459475336e-01
5.697693212825931663e-01
-1.227762003142299774e+00
-5.281488497473849630e-01
3.347402563615524129e-01
5.688489773415605022e+00
-5.873168974838735013e-01
3.271562276548472536e-01
3.869633742387894038e-01
-5.165655741582884097e-01
-1.719458060266448596e-01
1.424928993193102233e-01
1.082201195410984917e+00
4.694213048036103508e+00
2.183035212112420798e-01
-5.256441315548358861e-02
2.868365413076937820e+00
4.897932122850692793e-01
-2.277582040348309911e-01
-2.847310740049467936e-01
-3.783068710904455290e-01
-7.494578979521462347e-01
-8.040344825107162419e-02
1.484350375358035157e+00
-1.955716295265329530e-01
-4.527733742659439398e-01
5.211441523348896432e-01
1.703580400841320230e+00
5.804213259700883309e-01
3.794951460361179474e-01
-1.667709238997522325e-01
-9.383100729501665516e-01
1.021479361772512501e-01
-2.687950662705702043e-01
-3.380162471502618504e-01
5.115041613573136914e-01
-6.202414697202451865e-01
1.242810395035480742e-01
-3.013213695851312823e-01
5.831982520666657566e-01
-1.288257407845299629e-01
-6.974219506390380019e-01
4.116307441366164332e-01
-3.141345909994716079e-01
-1.605762819157089849e+00
