-3.403858896595303718e-01 -9.883839715204103538e-01 -9.167181909602035716e-01 3.774064678258821637e-01 -5.427161598498066120e+00 6.773508191316643945e-01 -3.997405932753637092e-01 2.199457500963264422e-02 3.614172709978702436e-02 2.937079249223614186e-01 8.480667505102283954e-01 -1.409307475687475719e-01 5.346403751299715346e-01 5.973628072347147988e-01 7.720327845635905906e-01 2.406563712334548466e-01 5.452733804850221633e-01 -5.723331831155786809e-02 2.467848287202495605e+00 -6.927293589973108068e-01 -7.082676239368048687e-01 8.702978039209789962e-01 9.441127253926206997e-01 -3.103658071820918907e-01 7.417895478399092468e-01 1.756870521625368831e-01 -7.601473755594152504e-01 -2.294107125398467950e-01 4.386586782385650807e-01 -9.172218391396602666e-01 -2.311048443912914196e-01 -4.625720898866297892e-02 1.861013432888380947e-02 6.398607682297319244e-01 5.321554959523339123e-02 -9.870634998919552983e-02 7.413391126158448419e-01 -8.393712881573223150e-01 -9.435095839558740316e-01 1.429047620332487001e-01 -1.171304735421242471e-01 -7.879935950019869573e-01 1.112745281276381060e-02 1.358363196325915734e-01 -4.227903247927726205e-01 5.337542224390778856e-02 -2.803634141443425154e-01 3.828730119188374914e-01 -7.519115548340409294e-01 1.945826993029670993e+00 -8.523346507330845090e-02 6.299045520641851637e-01 9.568323453769111975e-01 1.856161755592472096e+00 1.649471359134193904e-01 3.818274810875363912e-01 1.003136539984035291e+00 3.256881127841527723e-01 3.345045903169650003e-01 3.577284399346947641e+00 2.223753238106180863e-01 -1.303454082665687075e+00 -1.098500609522541221e-01 9.707720055160820594e-02 -5.512751490013950706e-01 -2.688830836036133487e-01 -8.055025723769533297e-01 1.738858372140130282e+00 5.702662611044839736e-01 -2.233459795119929481e-01 -5.815063152949786485e-01 -7.118518659044495989e-01 5.428514427042441248e-02 -3.233314438719590012e-01 -8.081920975140641783e-01 -3.111938272125656657e-01 -2.491618314034337311e-01 5.861471649645919602e-01 4.994987495359244634e-02 5.271931910760008222e-01 1.706896901452454596e-01 8.406852573930376771e-01 9.423277462334313237e-02 -1.709280482667918655e-02 1.043073322134404624e-01 -4.750485301091789125e-01 7.275788469806426795e-02 -6.295883178326340257e-01 2.361773753170354762e-01 8.692076646428668063e-01 7.152250534551758687e-02 1.616135127868778554e-01 -1.343044017429324277e-01 6.356665143731206058e-01 -4.196536763950892146e-01 2.977420317559618113e-01 5.238505098308652297e-01 2.318022141840024586e-01 -4.306190021887084662e-01 -7.616754146914477275e-01
3.205779488181858539e-01 -7.005296842453208050e-01 3.430859369617291765e-01 -7.601806918663744916e-02 -7.220339697649707844e+00 2.203142191458486998e-01 -3.981321247598861301e-01 -4.135920309400409334e-01 9.322000185154879492e-01 7.093023932944145793e-01 4.993530740889686736e-01 -1.622074844600629451e-01 -7.606956297535085731e-01 4.116696244406014560e-01 5.868784729981508796e-01 9.013689936781921208e-01 3.126210644578514275e-01 -9.301872408624878297e-01 3.494231515409041311e+00 -8.219582797287687814e-01 1.687679026902522139e-01 3.843030487837026943e-01 5.669844189088280029e-01 -4.366556839077125329e-01 -1.943448131994442996e-01 4.328628191090788668e-02 2.181845476687671592e-02 5.925988102493882081e-01 -6.104676969248346019e-02 -5.356337251042981862e-01 8.582100181302513286e-01 -1.231142615853566824e-01 -8.260268233069190114e-01 -4.402580336227019386e-01 1.218849779886706619e+00 2.610318374521388152e-01 1.770612915888851724e-01 9.501797738830541906e-01 8.616537239011707872e-01 -1.255074602031265585e-01 -9.382235069459355925e-01 -8.324142133145890909e-01 -3.363654681446468508e-01 -8.105349953815332853e-02 -3.798991222240306609e-01 -9.648431162051021026e-01 5.070352221537424153e-01 -1.198440848630821787e+00 4.759271551247812315e-01 3.122901150797798842e-01 -3.030020529866599976e-01 1.809550337830830580e-01 6.523527075838919664e-01 2.174910035433619271e+00 8.773778633036833918e-01 -6.816300876733718539e-01 1.174432805421143478e+00 -7.418431837563478348e-01 -3.692878086500710477e-01 4.100366831149742097e+00 -8.685652725064946234e-01 -1.527777190451965472e+00 -2.571660749290538561e-01 -6.321691240191237293e-01 8.045693999555445508e-01 7.577420768546616614e-01 1.084311335141676658e-01 2.151255160152051538e+00 7.279465189598963715e-01 -4.956684604936336114e-01 1.846171598867742958e-01 4.166268684200009620e-01 8.901983041316110512e-01 9.232877533227570876e-02 -3.545683961800771833e-02 -4.721772189795351848e-01 8.875186209421909167e-01 -2.771935191919981945e-01 2.197770884049878859e-01 7.645232852920533229e-02 3.207977315729517720e-01 -9.284168288588545703e-01 -9.930766829710811761e-02 6.034798786729256292e-01 -6.048583205602022783e-01 4.122404581186470129e-01 -8.755917708738724103e-01 2.304169651444707423e-01 7.597442842884180036e-01 -6.780741321458065851e-01 5.473431318390805655e-01 -5.205440026973868761e-01 7.690915090004415422e-01 -3.418819712405860578e-01 -1.532721650192123142e-03 -1.931794721583266483e-01 2.258881002205276323e-02 7.606602843849746831e-02 7.318279782177956605e-01 -6.698121504486534983e-01
-6.300616508746307298e-01 -9.592057487663099291e-01 -5.429172120113867628e-01 -8.816100407036335795e-01 -7.759800301461004857e+00 8.511560231422032885e-02 -1.233718777372816433e-02 -2.563623652288291588e-01 -6.247132412342581986e-01 1.552963255629574046e+00 6.592336474249835820e-01 7.379576795242079879e-01 -2.893331892503003822e-01 -1.117991081985296953e+00 -2.176612940783295702e-01 8.114672569774756816e-01 -2.804151922471718184e-01 7.913057273352346321e-01 1.712750729138853067e+00 -4.248392126712561834e-01 -3.956387909500913569e-01 -8.878835229102044480e-01 9.732065241017797685e-01 -7.793153284468958830e-01 5.031715111603112245e-01 3.303553334006092967e-02 7.549467475823077312e-01 7.223338163231243225e-01 -3.119247226227890302e-01 6.722892544428851203e-01 -6.041774662589022293e-01 -6.169417696643837434e-01 -9.575446469922450632e-01 -8.884591708801636845e-01 6.105680798824841826e-01 7.364902727842149721e-01 8.210827284078963118e-01 1.013385468801241807e+00 6.090576915770995470e-02 2.956081157508259061e-01 -4.912378919824995638e-01 -9.916421028894296663e-01 4.773995077013923338e-02 -6.372668968640073928e-01 -1.191234804215662191e+00 -7.947024164917062539e-01 -8.819589242850023325e-02 -1.433215589249853927e+00 3.439569561851629764e-01 1.260058335903692317e+00 -7.833248526920980614e-01 9.196601927744899596e-01 -2.932888003842686331e-01 3.191233944916317622e+00 -2.262704387238390902e-01 3.392991135875089714e-01 1.494391978610670080e+00 1.648033937588249953e-01 2.548676332459238747e-01 2.561822527048324805e+00 -8.526115898561792417e-02 -7.902315314000503133e-01 5.249868020938455171e-01 -6.463376079949448849e-01 -2.313633964671407139e-01 -9.253817160206936343e-01 -2.030649521285134984e-01 2.544594661929238999e+00 7.470206174816396150e-01 2.225543846940940818e-01 6.567964293762280636e-01 -4.281760964199459174e-01 5.773895460721845119e-01 -6.088400748027009701e-01 9.661961796881053388e-01 4.391386302992595358e-01 1.605668880826057188e-01 -1.033927254293548703e+00 -2.685665963063970096e-01 -4.527900494415280641e-01 2.812687078742696078e-01 7.986747046858699850e-01 2.740703784591655978e-01 -5.315611460828597590e-01 1.750025423862631158e-01 -3.361711213927116026e-01 1.246751176380256343e-01 7.637765972283971916e-01 3.139409558513576726e-01 6.288281056995127793e-02 -7.847910695069312270e-01 6.333767295735277525e-01 5.975604798348087554e-01 -6.933946124689331914e-01 4.666589432090065825e-01 -1.225551768677917153e-01 3.642719319828576774e-01 -6.542829891333390435e-01 4.337768390944194419e-01 -5.195871056559685508e-01
2.321527527211109665e-01 -3.531020675186560265e-01 5.256365878376205725e-01 -8.573511052398643528e-01 -6.355708762969556780e+00 -5.284205346869164099e-01 2.310772743787807837e-01 8.927696129278632764e-01 -6.348164930440747256e-02 1.323157308686609301e+00 1.319845511823376949e+00 8.606487255660901781e-01 8.882116484201079132e-01 7.661964028111771796e-01 7.808737377404084690e-02 8.352851696380108049e-01 -2.716131462969166854e-01 -2.206556934141175041e-01 2.709412437122971973e+00 -8.823721723382836890e-01 -3.265428659247584520e-01 -9.148029449978980487e-01 -3.921345619427694107e-01 8.444102493704190859e-01 7.096088006392764491e-01 -7.680126844454806534e-01 1.047187970200844642e-01 -1.060475871907404777e-01 -2.455032856538288399e-01 -6.509752838681737153e-01 -7.887901925802578429e-01 -7.951423245933910700e-01 3.244883967513414458e-01 9.646450114257982822e-01 -3.859283284164845562e-01 -1.751303579175348957e-01 -1.790465398599436764e-01 -5.677533122640352481e-01 8.340235573196588259e-01 -2.589886797278784236e-02 3.345047204920412742e-01 3.969530100355981861e-01 -6.868779054368094883e-01 -9.872460544991785714e-01 -7.091215249128682840e-01 9.801071049382614753e-01 2.733356848109977921e-01 -8.573478502090823294e-01 3.802598820150089320e-01 1.837980634855988171e+00 1.438781755238581483e-01 7.548744584249716949e-02 6.460138460959827800e-01 3.272083182028404647e+00 -3.526505095540707208e-02 -3.269423639173769658e-01 1.998568169857983134e+00 -4.786154151381173394e-01 9.291834725096315140e-03 2.793378571684260514e+00 -2.630546895239179173e-01 -3.625574488011090724e-01 -2.104554668552751640e-01 -9.455171663086051614e-01 -1.610109013725303795e-01 3.753729790736572980e-01 5.263789996854169040e-01 1.299664605601785539e+00 -5.788669251492220003e-01 -1.333650445121165873e-01 -9.003670787719293411e-01 1.546859609050100226e-01 7.285892853080084830e-01 -8.590101735639059655e-01 4.393778779207753171e-01 6.393137651919520437e-01 5.266098984797595861e-01 -1.153663113731709045e+00 -3.098873978214540005e-03 6.175328906537558282e-01 5.673118403875925253e-01 -1.760632761265830126e-01 7.204678436709128775e-01 2.687666496663045912e-01 -9.942350350915332147e-01 -3.347452745051048839e-01 -6.694880082485559214e-01 8.986044392080705379e-02 -3.200907806584752519e-02 -3.414289167950155246e-01 2.155969926652756274e-01 6.847107018208560270e-01 -9.329642981846535399e-01 1.197873980596240173e-01 2.337891026524187288e-01 8.428291884231988718e-01 -1.300077723335484603e-01 -9.590312696478084931e-01 3.163704284483552509e-02 7.378506090545816631e-02
3.387918764545480577e-01 2.159326463562241116e-01 -8.200623443452603745e-02 6.860240800660606375e-01 -7.429624797960978633e+00 4.225945333170879614e-01 -8.988569818022720259e-01 2.610414884670426705e-01 6.575807347291828808e-01 1.711741053946751911e+00 7.131507729581507693e-01 -5.341563409685989861e-01 8.633970269242527973e-01 -6.533596093585715137e-01 8.223061086378713469e-01 -8.758029233562383276e-01 9.755165442006616394e-02 4.001472199217699366e-01 2.868769399123960007e+00 2.647196324768942288e-01 -3.792496078409623994e-01 9.284654658515565373e-01 4.296305398238187134e-01 7.000605238644612704e-01 -4.400250724014498349e-01 -1.812680065825504894e-01 1.446070652177735560e-01 -4.280587257286785352e-01 -5.607594326373037674e-01 -3.895829824094785288e-01 -5.583413936151893076e-01 -6.050432963164014133e-01 9.207922339909104803e-01 -8.202866301157689666e-01 8.961230522954748423e-01 -8.841504128483720359e-01 6.992104031861867686e-01 -7.743495576909897871e-01 -5.695499989219809933e-03 -3.494763548084532379e-01 -1.238960663729791634e+00 4.497360621886044574e-01 -8.024935184672417066e-01 -3.616604600357398169e-02 -1.723968770727480226e+00 9.437370944750367308e-02 -6.487009539579233763e-01 -1.043462237458389619e-01 9.456388638782902145e-01 4.358006648359393775e-01 1.759213284613838080e-01 2.695538133536048986e-01 4.543162230690778181e-01 1.938666249008733411e+00 9.092776445274592945e-01 -8.094457707923510270e-01 1.730401926821718561e+00 -4.598891748504106980e-01 -2.159759092661743818e-01 3.746299909321402666e+00 -3.950702821598694320e-02 9.938133919009850548e-02 -3.554316245490605208e-01 -4.022155163954670432e-01 -2.616785354524514551e-01 2.010745248333720703e-01 -8.817256976708154337e-01 2.385667887641384599e+00 7.395353736891521201e-01 -6.521189731934741440e-02 -9.285454012196685536e-01 2.265322006492914153e-01 8.297654192686922947e-01 3.425609248392185169e-01 -6.095003461547277013e-02 -1.078317023141733833e-03 -5.381799062461514183e-01 5.470125994975141848e-02 -4.744650387022220778e-02 1.894862336834058913e-01 -6.178639830742724826e-01 8.505376154525854382e-01 4.046617038715389914e-01 2.997377395856333226e-01 3.918810975914548411e-01 -7.201529909417055952e-01 3.699300340259090158e-01 -1.021352014362728600e-01 5.700772504673036201e-01 -3.743497779019215876e-01 -9.984834926182359904e-01 -9.983890258311429733e-01 4.559473851805306288e-01 5.068378836220925887e-01 4.750474067758169161e-01 -9.804971183385473577e-01 7.448551246684038674e-01 -3.413354862153955005e-01 2.654545310251912871e-01 -5.528410629798199416e-01
6.471961623646372841e-01 5.588713063484529453e-01 7.616379707820821743e-01 -5.398100771405696108e-01 -7.689809555418960940e+00 -2.270294061270294872e-01 -2.425602986082122658e-01 2.414276619640340904e-01 -8.368369855034181182e-01 6.082177983018746126e-01 1.353889043444954421e+00 1.211734844430285563e-01 5.421141788815109219e-01 -6.702577871046243585e-01 -3.947844408318466058e-01 3.557160891268160707e-01 -2.625612635693747726e-02 -5.843402191067437190e-01 2.472511815772718169e+00 6.570028274225173659e-01 3.311541965372792884e-01 -2.661721557536849136e-01 -8.704842039975637658e-01 2.872759129292929425e-01 -8.029427093870065146e-01 -6.769504680074602820e-01 -6.095114799016205787e-01 6.070613359640431028e-01 -9.400109867700234823e-01 7.106411056860106878e-01 6.588807322395674460e-01 -2.519797990690738621e-01 5.825021706888897643e-01 8.414299737568252668e-01 5.051746536151625611e-01 1.110904357571547707e-01 -1.983610586263138131e-01 -5.139146198872165394e-01 -8.447014567027610887e-02 -1.926739175961946771e-01 -5.694289523699791467e-02 -9.056957536206842185e-01 1.079703106613589120e-01 7.388228723108196672e-01 -1.252701078172792082e+00 -4.215163821192546845e-01 -5.419117568444367095e-01 -9.889024510329778028e-01 7.677452207312689403e-01 6.283552375759169362e-01 -4.076322473752411191e-01 -7.235091204465817771e-01 -7.448678393637644390e-01 1.765674568642984221e+00 -9.317399411857706093e-02 -6.612354532421504949e-01 2.117502888865135269e+00 -8.606700713035216888e-01 3.952821161922195348e-01 2.809534640336728284e+00 4.215938243657980089e-01 -9.217176556045665325e-01 7.079611384291644161e-01 -6.038681031247828956e-01 7.262223776405241082e-01 -1.508912284657886183e-01 2.116536160089899088e-01 2.599057433044687837e+00 -9.158879366850918302e-01 -7.723148978509344342e-01 9.409094985174857317e-01 -2.939666736250847734e-01 3.790101021608134335e-01 5.837648773001233860e-01 5.535959341576375259e-01 3.085322004495897885e-01 8.885175418396523694e-01 -3.991548059323310471e-02 3.082377522889306887e-01 6.800236606247519466e-01 -3.477696276323110069e-01 -9.203125722581095847e-01 -7.928140758902628704e-01 5.514430932720260081e-01 1.676808353194509937e-01 5.197101381678602694e-01 4.815501007485710749e-01 -8.112400559306967018e-01 5.185330601834848840e-01 -8.412636540442055555e-01 4.363860430170296012e-01 -6.428873954183416117e-01 -7.286799959673763150e-01 7.457979808777781550e-02 -9.638582074822494850e-01 -8.820752169033403423e-01 -7.236388084659063358e-01 6.350027661552373748e-02 7.832034726562303595e-01 9.633817699868814088e-01
-7.710476721229707620e-01 2.891515637725508014e-01 -1.029374945923637874e-01 -5.583058689786970508e-01 -6.572988295496146272e+00 5.103958586130039610e-01 -1.061998498216474296e-01 -8.896337773409506156e-01 4.585552864535871187e-01 1.232929401209317932e+00 6.201383136034250843e-01 -1.016081639941095460e-01 -9.361638174093407372e-01 -8.290754925137684417e-01 -4.843065018249790299e-01 -6.402960536469057828e-01 7.970822143169943308e-01 8.347942700356727475e-01 2.202140487820918757e+00 6.771981536705867777e-01 -7.881052721698380559e-01 -1.282443634769163676e-01 6.289274865390996894e-01 -9.462972489578789226e-01 2.625554460027661463e-01 3.702505239165423401e-01 -7.920254450334973662e-02 3.517756785368162387e-01 -8.972007307826102007e-01 -2.815900141184366490e-01 -8.057050367457777584e-01 -7.590760126928505214e-01 -1.818436994158338926e-01 -5.756893332334906965e-01 1.055556638570996464e+00 -3.081988469470026831e-02 -5.829246381488426554e-01 5.759430915577169463e-01 -8.320475502780224630e-01 -2.192452898338683176e-01 -1.314621872550726156e+00 -8.981388513918168170e-01 6.622035627844403693e-01 -6.784416612189381190e-01 -1.781582204643485934e+00 -7.057063585385434656e-01 4.890631160100322727e-01 -4.349506405657571628e-01 -9.284246113628658037e-01 1.788356900442385378e+00 -4.435096124267047801e-01 9.685583873589107551e-01 5.637162519782343839e-01 2.802628789896599137e+00 2.357297951970661887e-01 6.933380066140866216e-01 1.136890569653844274e+00 3.851276157576283277e-01 -6.435592783303736297e-01 2.465441643055397591e+00 -1.782156377663050573e-01 1.407638124188759221e-01 1.369576026849124162e-01 5.791593136031265576e-01 -2.353685800987771470e-01 -3.541411664067874998e-01 3.237604712666670714e-01 1.089544212643977161e+00 -6.572765282594688063e-01 -2.673016013977772554e-01 -6.512422773277650734e-01 -1.205698463282353777e-01 8.925113790577823281e-01 -7.742987614289653653e-01 -2.297590402071909566e-01 1.075553665126820269e+00 4.769707856649057498e-01 2.098011039402724875e-01 -4.913546014084013702e-01 1.010204035883636609e+00 -7.680186606380778880e-01 1.706971691249643541e-01 4.811922954759157989e-01 4.164046751686556469e-02 7.036129506694221991e-01 -4.073732624865993301e-01 9.045108570696827055e-01 4.820019682155149976e-01 -8.201720202979742025e-01 1.075402129027305476e+00 -8.631070481636440306e-01 -4.310011701701959019e-01 -7.883404726016908226e-01 9.148085588651944100e-02 -1.891982044583173095e-01 7.482348642357878887e-01 -3.154047717782481053e-01 1.606182846391318586e-01 -1.093423999060730567e-01 4.997323943375021060e-01
6.490606841829736906e-01 -4.112973615377102377e-01 -3.267572251562211871e-01 7.628920583131129085e-01 -6.310386702552787774e+00 -9.394989237888109468e-01 9.957767052611998793e-02 -3.231629596593279530e-01 7.195065632989019466e-01 2.580645721312504470e-01 8.315547228927908652e-01 3.737306590939344364e-01 3.343353937638404716e-02 -8.245005363457609260e-01 9.441821943618995405e-01 -7.155786431423940552e-01 -6.938552559353959870e-01 -7.797929982849081121e-01 3.183359646610478766e+00 9.934107700155044851e-01 -9.783889486940537950e-01 -3.274385462498119459e-02 2.052503144847481753e-01 2.550917965981728819e-01 7.896844708621204578e-01 -3.618410905328846017e-01 3.863298895357905050e-01 7.897140584396213914e-01 -3.603074490733946256e-01 2.133135308791758167e-01 -9.043440610186332940e-01 1.634006840638333458e-01 -4.899735340740802858e-01 -1.202791067128255315e-02 1.257822049550763932e+00 -2.099278076516346292e-01 -8.340817376714004805e-01 -5.044806684529147267e-01 -5.498751145947802232e-01 1.511551227415707244e-01 -4.220781206618297587e-01 5.198373692839891591e-01 3.740176049988589990e-01 9.813014571419258480e-01 -3.225943229410827007e-01 5.872565323396898851e-01 5.431868044135890194e-02 -1.467533358989606462e+00 4.536112818948976333e-01 2.001957342535048756e+00 -9.230738074154799799e-02 -5.599714995185179900e-01 3.158569722814699166e-01 3.064001746636427992e+00 -8.899964887167146621e-01 6.388449640406530516e-01 1.016907872994192941e+00 1.326838519446747744e-01 4.104453393980238562e-01 3.791297562528023857e+00 9.712406476207497974e-01 -1.367275976684751981e+00 3.294274238146278205e-02 -5.500289866549260553e-01 2.651832793703741142e-01 3.471021623835517378e-01 -6.257009422885944083e-01 2.331315206664979378e+00 -2.776186309585797485e-01 4.122678233906947320e-01 7.964214015443458194e-01 5.500925941667339503e-01 -6.169514246826974802e-01 -1.837520113558619578e-02 -9.566898903556717570e-01 9.626939010992960899e-01 -7.585246136244711002e-01 -7.615486764122025853e-01 -5.436818459445842411e-01 -3.504418106044746017e-01 -6.053548077959445273e-01 -4.690514307064392874e-01 4.159844162116719257e-01 5.652997898337270843e-01 6.422007574573493915e-01 -4.296564458390861874e-01 -1.402350793778234239e-01 -6.464573850806607513e-01 3.955174277976279407e-01 1.018026779527437364e+00 -9.595171331010229343e-01 -5.508785713583823629e-01 -1.005288853230967561e-01 -6.111229105921753835e-01 1.999387945541674927e-01 7.440341776123475803e-01 -6.607159903574445492e-01 -7.401898875700282376e-01 -7.449291685100917215e-02 4.037795019531376095e-01
-1.147844326588759040e-01 -5.952740646982102035e-02 -5.655318338239192499e-01 8.845275196648434424e-01 -7.938758790708961399e+00 4.773095499344439663e-01 3.263055710535449627e-01 6.483555439058781289e-01 -7.723361048814014751e-02 1.093280954715111886e+00 1.711603809080297189e+00 -8.328850655333839281e-01 -6.553527467013740004e-01 4.078446119798186942e-01 -7.667695834674606026e-01 -9.749078801067452282e-01 -4.614484860349839512e-01 9.311743637931793049e-01 3.866643720596371292e+00 9.161973332911853285e-02 -6.705816833670441568e-03 4.563455959901396852e-01 9.688794769462421019e-01 -3.920230500380371130e-01 9.283725983285122663e-01 -7.861163195911498036e-01 5.947012434973621975e-01 9.177061256633338715e-01 4.753930696093817687e-01 -1.032927012180824278e-01 6.585092773866427773e-01 8.205495055314118158e-01 7.586196746340831965e-01 -9.598370513993482733e-01 -2.057277064844763581e-01 -2.506664673981968267e-02 -7.731917189952730585e-01 1.144053370050706064e-01 4.969629411530223084e-01 2.948414886889253461e-01 -2.619559422484915023e-01 2.370127231692104597e-01 6.916539834244251894e-01 -4.362729355848418145e-01 -4.389712592643235656e-02 6.729243204226098563e-01 1.300878067116650882e-01 -9.724391318689816766e-01 3.201114272372815872e-01 8.622370924799453995e-01 7.916366079024043101e-01 -2.619559405501077354e-01 -9.457086705838722018e-01 1.308790219797737908e+00 -2.831380614200944557e-01 7.917697186997791903e-01 1.186387169426201593e+00 -7.725155312523211970e-01 -3.819586930144525105e-01 4.288264841796314286e+00 8.279794161483929882e-01 -1.410786139888066337e+00 7.119685411567068523e-02 4.638523586065202986e-01 -9.776561154157640265e-01 2.761305512382112859e-01 -8.201757710143442459e-02 1.503765158149636960e+00 -5.312187220144755084e-01 -8.875480463038095680e-01 2.662333507549086153e-01 3.471993338690400055e-01 -1.586862865998355243e-01 -6.586504696260073732e-01 7.997156872498079050e-01 -1.812156029723463457e-02 9.458532086429763952e-01 -4.135550209784069620e-02 -2.429599449309358672e-01 -7.187561506975683745e-01 6.342699009713609337e-01 -5.567810226148401931e-01 3.722826014150162344e-01 5.608717310235586950e-01 8.486152282412533499e-01 2.150188023141748686e-02 6.806256538446781024e-01 -7.213509112642306764e-01 -8.238417693870699887e-01 -1.191311183103300336e-01 7.188158258024907044e-01 -6.655403935117543135e-02 -7.296848967223332760e-01 -4.693089334437980931e-01 -6.201460019999440743e-01 -8.031542885517155561e-01 3.618861323004645136e-01 -7.507369977823681317e-01 -2.482096466583388616e-01 3.567187201378588246e-01
6.584904621269028757e-01 2.023879316895185188e-01 -8.704526099746412449e-01 -1.704518951096525292e-01 -6.515783064870174002e+00 5.354796372668773063e-01 6.776642219140405210e-02 -8.469722866824742624e-01 3.676447758511636188e-01 7.654524490062808439e-01 1.284350447074529722e+00 -7.641339682292815905e-01 -7.220071145692805725e-01 2.998170337277985542e-01 2.401729689925480304e-01 -2.261866760455311098e-01 5.253966963814271640e-02 1.933559233255148779e-01 3.166339915009898753e+00 -4.759398138839398551e-01 -3.409277575145781558e-01 -1.066073768027882007e-01 7.708258827036797989e-01 -1.807213745780820724e-01 -9.145579574607833884e-01 8.445504718186058746e-02 1.899429324698487243e-02 -7.338707741320864564e-01 4.914493674100837151e-01 6.218036414930470102e-01 5.444587566504420773e-01 1.704515163963897517e-01 3.829672308298808225e-01 -7.177948735014727522e-01 -1.560302195001398440e-01 -2.549547990024631505e-01 8.009693746578000484e-01 6.137703024963807596e-01 -3.204424043148588197e-01 1.339573999087765865e-01 -1.367249646599059121e-01 3.093684445005808192e-01 -7.079013941651072228e-01 -4.940628781119573709e-01 -1.650264049392148991e+00 4.937981976737890744e-01 8.637434545949642661e-01 1.821347426875186137e-01 2.133985604527310898e-02 1.926960554908258461e+00 5.915102238379061489e-02 1.809506088266855106e-01 1.844239546349437653e-01 2.482966594941850680e+00 -6.824276508111173367e-01 5.262968092868371972e-01 9.551386029674464595e-01 1.005612190691576702e+00 2.237835028523178504e-01 2.659301280618040053e+00 3.624484274082726554e-01 -2.069988609088015963e-01 3.891625997840819640e-01 -6.859022018749699745e-01 2.485289598180878429e-03 2.782180873027066959e-01 -5.434697882389480927e-01 2.934987984818482776e+00 -1.957346746185129049e-01 -4.655831053869198821e-01 -2.036222238795584172e-01 -2.567020152707666369e-01 4.421135310439026078e-01 -3.566378924002830964e-01 9.177818117770066841e-01 -1.119211703460383234e-01 1.457732496426494828e-01 -6.937397059219401196e-01 4.099129484339043561e-01 5.302982084733551815e-01 6.359910569456744822e-01 3.629592031756991855e-01 7.624954788269278083e-01 3.638952549529037572e-01 -7.720857888858871920e-01 -8.416710832296751821e-02 1.191997325862174800e-01 -4.859151763046234418e-01 4.791201594369590144e-01 1.072943907481524795e+00 -9.214968264271100606e-01 6.706589873197317253e-01 -3.598352381798485267e-01 8.441934988241903692e-01 -4.128977170320338175e-01 1.102761015143685075e-01 5.186357761173563397e-01 -5.802186744091744064e-01 1.462815722166260490e-01 1.790417868764390382e-03
-2.114639333431504453e-01 6.368253939017542997e-02 -7.032938644871167266e-01 -1.062903383651230271e-01 -6.173059751280911556e+00 -3.404345608445491500e-02 -7.897444128900990012e-01 1.128780390147401391e-01 4.335326193912170112e-01 1.584558562725694397e+00 9.977786500915940548e-01 3.141320279662733750e-01 -5.133756838370375775e-01 -8.290721309246968929e-01 -5.565083064876001906e-01 9.404171918313717349e-01 -2.766179282144488050e-01 -8.502188579801392976e-01 2.419021036666636704e+00 5.550413419960508188e-01 5.558571173855209047e-01 3.691959775550925915e-01 -3.661567227286159909e-01 -9.872905611187998698e-01 6.661472345424035435e-01 7.479785853515310556e-01 -2.025159014273680835e-01 3.581671501232908117e-01 5.263822414501442282e-01 5.901741132750832897e-01 6.608409034001903049e-01 -3.349551341761398682e-01 -2.571189603941097523e-01 -9.087162936638074062e-02 5.534364943632825717e-01 8.098997767378764978e-01 3.695548616387888119e-01 -6.420748432202388889e-03 -5.874264869073262396e-01 2.383770580175593179e-01 -6.304745642783499138e-02 -5.598053608535588088e-01 -3.325745173592226656e-01 -3.909796105606868633e-01 -1.631293673970791502e+00 -6.235684749073377997e-01 2.207988416899619999e-02 -4.561132544137846412e-01 -9.538288836940658211e-01 8.420437728799521349e-01 6.429848102859844206e-01 -7.459213264784284592e-01 -7.848271729998146373e-01 2.202905159480408326e+00 -3.715423805560070236e-01 -6.284183157462128744e-01 1.580004875880270276e+00 9.350402967279584088e-01 2.671933835458484285e-01 2.662198162429287418e+00 9.280018906605552731e-01 -1.886278077995642843e-01 1.317339633331193749e-01 -1.494934636088857127e-01 -4.741343624973461957e-01 -6.310225395936619464e-02 6.742609720301178111e-01 1.578940444228730478e+00 -8.335088335416986904e-01 -6.826658098957272269e-01 4.230053116854515238e-01 -3.447244771270927544e-01 -6.725889622922380795e-01 -5.129128735243382309e-01 -8.100278157458686845e-01 -3.417793970984772667e-01 6.638336575976109266e-01 -1.010428327759499645e+00 -2.431903764332414564e-01 1.695392759184362608e-01 -3.579277869052947536e-01 -5.139138465812778112e-01 -5.660008133631428962e-01 -6.511212022144905465e-01 -3.151532317853475984e-01 1.417480797088029598e-01 -7.243790381030740244e-01 -1.418769520969482834e-01 -2.736779382257802373e-01 9.978364696172354886e-01 -4.852562080203446926e-01 2.799260644805359188e-01 6.667775096272247071e-01 2.617818776768607858e-01 -9.654463753769388923e-01 1.253141176422596370e-01 4.519236530154833731e-01 -3.241222341034653009e-01 8.196802143732385693e-01 -2.632442300476739439e-01
2.758413284643825708e-02 7.512038594724921303e-01 -4.479440434379797775e-01 6.419498392632414507e-01 -7.199156516487575708e+00 3.950345851367649264e-01 7.119788053452760224e-01 -5.177233522576745184e-01 5.785170744474301685e-01 8.449210309392520823e-01 1.628357050499322334e+00 -5.375436296460784913e-01 -2.590091944596433216e-01 -8.179863062287928699e-01 3.583398001950661715e-01 8.543404753541290475e-01 -3.891544099522484257e-01 2.673338585004174650e-01 3.617336927851429351e+00 8.541811716191695103e-01 8.298275476141216966e-01 -4.290891433995480675e-02 -6.256860105357731072e-02 -4.228900892824852265e-01 -7.290232121842643576e-01 -3.834714520723523368e-01 1.342352419311478862e-01 4.225706202615886475e-01 -6.082044592659263671e-01 -3.812108896379764467e-01 -5.466746423615874706e-01 -2.433347155937672091e-01 -5.946097471689824054e-01 8.217652787387975666e-01 -6.402492821677285839e-02 2.870344469441438173e-02 1.891879030693242036e-01 -4.237903577247694176e-01 -7.800267364397930336e-01 -2.754390602796541465e-02 -8.715813154858436107e-01 9.306859743882215374e-01 -5.154129594682845816e-01 -9.667324364614235943e-01 -6.971116217183979114e-01 -9.933623380899427868e-01 8.375375714630295398e-02 -8.713323493348226201e-01 7.174435373186283105e-01 2.021042841910949406e+00 -3.650699224860048855e-04 1.105279681646657686e+00 6.491594190665086472e-01 3.229063940579114611e+00 1.844050607313705292e-01 -1.354095371249706137e-01 1.393348839161380859e+00 9.893671224613990178e-01 5.928083175530400872e-01 2.439499470140777504e+00 -6.526084730159630032e-02 2.551039120857041542e-01 8.758520033066403698e-01 4.465089076278960789e-01 5.403943131133117639e-01 8.174005068268146434e-01 -7.243157775841033708e-01 1.736888394444445316e+00 8.915267135857072311e-01 -3.214848920820457256e-01 5.247245278601500029e-01 1.525695084581442651e-01 -1.594690013489501457e-01 6.164778360184024475e-01 1.673000684223979739e-01 6.839991719084862476e-01 -6.888482116571147396e-01 2.265551712971449472e-01 -6.590447484733368277e-01 -3.417964342477967654e-01 3.712394099213816023e-01 7.793476150877236552e-01 9.519492592848211032e-01 -5.185348285479243202e-01 -4.505906102609775754e-01 6.648247302505004841e-01 -7.246826864579767324e-01 8.505685855111941862e-01 3.577703111033557759e-01 -5.752808567503200354e-01 9.572698765832230450e-01 -5.495161895858384771e-01 4.507094840631896693e-01 -6.120169769923031744e-01 3.899320479634347247e-01 -4.065808092933647089e-01 5.486484999486059833e-01 -1.497782974230589537e-01 -2.806667004005534150e-01 -3.972060930292797831e-01
-2.412588813933500276e-01 8.503306080045311965e-01 6.826707664544890974e-01 -8.418512025340831872e-01 -6.002342404685781396e+00 3.701823526174208290e-02 -9.887854661122819078e-01 -3.440751388708411795e-01 -4.540816164494254625e-01 1.716979389487786944e+00 1.018806845831981001e+00 1.297975457064433069e-01 3.654410161694841008e-01 -8.258675327876650041e-01 -4.658815329950027895e-02 8.812523289386176018e-02 1.196838414717179555e-01 -6.188833956421269100e-02 3.408036211356546552e+00 9.768941074689371229e-01 6.651601406782781112e-03 -5.571417722181974952e-01 -1.006351295586991323e-01 7.144662975811746364e-01 -8.457477119055079040e-01 8.592389907086217526e-01 -3.975461110791638220e-01 -6.137233480795794005e-01 -1.124064225881964418e-01 -1.456870190341315041e-01 -7.287215068978284416e-01 5.355945776354760213e-01 2.636097923076721194e-01 3.422322361550365066e-01 -8.180357059124399033e-02 7.105976954315599281e-01 -5.295511532318902814e-01 1.001772019807867675e+00 -9.623892316236708488e-01 9.785809857869995909e-01 -1.267392313312386998e+00 7.874864122110157849e-01 -6.720657104446972063e-01 1.044445907101938520e-01 -5.719115029300911868e-01 1.193963332731349247e-01 7.535218354874468893e-01 -6.281873811188345424e-01 -8.067969337725748868e-01 1.372364957512363981e+00 8.885251107183174124e-01 -2.796327395845186747e-01 -1.807151745447843627e-01 3.128313207181265376e+00 9.804619051943400665e-01 -1.224730514236456180e-01 1.831994305851049720e+00 -5.167656173490243754e-01 -7.829266956857594550e-02 4.233624483362017799e+00 4.746645416288470809e-01 -6.115552040606808681e-01 -5.985882386591958593e-01 4.341632497197109863e-01 7.467925177384211466e-01 7.902873739481708348e-02 -3.722575127965666031e-01 1.012894461192016760e+00 -9.352843466063855971e-01 6.651818700050254884e-01 7.341977396833405667e-01 -8.674094796301630439e-02 -3.356438704318216448e-01 3.506080371629611836e-01 -3.368938647084920301e-01 -4.032844956418631943e-01 4.049337731930624518e-02 -2.412311876284750078e-01 9.636138305843087171e-01 -5.345103657159560040e-01 7.446101956432871205e-01 -2.262352233444344662e-01 2.905958851364267778e-02 -5.458339754475407535e-01 2.018510537876441191e-01 -2.452617844401002167e-01 -1.170847094004799638e-01 -9.263603110873463997e-01 2.048342990465620295e-01 -8.303570672338556058e-01 -6.691001616523540863e-01 6.076947987393885864e-01 9.010345168730946597e-01 -2.594140203808794620e-01 6.163588364356007432e-01 -5.967561613263618892e-01 9.524428399174328375e-01 5.194908660353632079e-01 -5.766338277116246358e-01 -6.157336714773284370e-02
6.684213617542350550e-01 3.222234856359957877e-01 -9.723137120190921134e-01 1.636821613128494057e-01 -6.111236770677230368e+00 7.893720744362611175e-01 2.332086613816009013e-02 3.711477308380339846e-01 -3.415274950846922675e-01 9.206113196006622257e-01 6.702094233414045421e-01 -2.815740083654558745e-01 5.377587481592587260e-01 6.923522666956645200e-01 -8.803686748271886131e-01 8.194666662416847380e-01 5.959590249618617053e-01 6.877655479401245664e-02 3.686221489149594355e+00 2.822694866571411054e-02 -6.122414598169934052e-01 7.754065404480932067e-01 9.805147850566531265e-01 7.950503919592597502e-01 3.550163359991633794e-01 -2.301530644400588965e-01 8.535081775222819189e-01 5.804476428789073772e-02 -7.192103275477323976e-02 1.536413558995293194e-01 -9.103196402454702962e-01 -1.170557923686098012e-01 1.764675776942969954e-01 -8.994616889606888988e-01 3.377384032056938157e-01 -7.658501440740378419e-02 -8.554939281099332993e-01 8.309663109727042363e-01 -6.393774659960795859e-01 8.853907697715766023e-01 -8.016738114459716069e-01 3.092203796190141629e-01 -1.266435233066946775e-01 -3.176623953917765419e-01 -2.778039687157273230e-01 1.635489224080788340e-02 1.146653737454264022e-01 -1.381490246719712545e+00 5.940480315556615487e-01 3.075976662962687236e-01 4.741086477002383164e-03 1.047719349090173724e+00 9.843967851508124145e-01 2.011380462641704447e+00 -1.289259464434211466e-01 -4.106829568143455234e-03 2.132904667959397038e+00 -6.962099945463203765e-01 9.028827550706810534e-01 2.909557290060223789e+00 9.964058817007820368e-01 -1.053415816906810409e+00 6.683718035252064205e-01 3.846849085552533909e-01 -5.728914413449807119e-01 2.630663426866730603e-01 -1.491838760989638857e-01 1.178979574041227218e+00 -2.843691803136421115e-01 6.526519740151186522e-01 7.930503481778057306e-01 -5.435531557202605279e-01 -5.642806788667971141e-01 -6.984800857588608913e-01 9.288671220209572255e-01 1.156167266535869764e+00 3.881349376447421062e-03 -1.783886140860959368e-01 1.509926879075408901e-01 3.450875610849329922e-01 2.874695933550160953e-01 8.810669574357066214e-01 -8.878247031118100541e-01 -5.510041086341470606e-01 4.769149700128667568e-01 -7.505243049780442322e-01 5.346793928175987975e-01 -7.905344860315359767e-01 6.065598325687550085e-01 1.087798596352865105e-01 -1.715084547364632561e-01 -2.292305437435884219e-01 -1.706301059054257385e-01 -7.005361478372706951e-01 -5.699208542863775095e-01 -3.394235193203154477e-01 -6.126529428813407008e-02 8.077854239686476090e-01 9.751340452765804301e-01 -6.514177629359623189e-01
-2.208030518974427869e-01 7.055203567969399181e-01 -7.139741058574629040e-01 3.320952120582646439e-01 -5.856926288618518939e+00 -4.968605716604455047e-01 -1.748451117153295709e-01 1.895157604866874179e-01 -9.819709675730203813e-03 8.049508949804011770e-01 1.438857591144597770e+00 -3.327106423522594447e-01 -2.166423395872694169e-01 -9.345311191978793453e-01 2.180277824033325373e-01 -4.924798991432910444e-01 2.004237457048943793e-01 3.321357400226712109e-01 1.793008996441577629e+00 -6.530761016137325292e-01 -8.877074094897345891e-01 -4.806120825379700534e-02 -5.249955356897675340e-01 9.779840605472718551e-02 1.056310157125908145e-01 -9.566450214197537161e-01 9.902290903837465130e-01 -6.454366818712335974e-01 3.111946021097700132e-02 -7.211766472097744796e-01 6.270590500265463274e-02 8.362582809650457305e-01 -2.133563563636460270e-01 7.271716556403020615e-01 -1.304594527539007509e-01 9.744030371800429524e-01 2.529996548151204894e-01 1.075184071842023137e+00 4.927178065601495183e-01 7.470022622669167944e-01 -5.480891645820926694e-01 6.331571678813128212e-01 -5.132036341206083208e-01 3.763999149733094907e-01 -1.195539075583184063e+00 1.303084051231095941e-01 2.211104064371305356e-03 9.040256668337998125e-02 -9.204564517540110291e-01 1.055222916145046819e+00 3.843287707580954615e-01 -7.928942954379374353e-01 5.768763724205427934e-03 2.721982018044523777e+00 -9.875457298756503688e-01 -2.572580531294812456e-01 6.245357880654761606e-01 2.507547280031969805e-01 -9.347121076358755332e-01 3.553418919264231590e+00 5.526148485858350945e-01 -1.238848962447496094e+00 8.805208604330276856e-01 -1.964708843849523046e-01 8.662507442591063644e-02 -7.289977710966122348e-01 -2.185018294822884677e-01 2.470525464424631057e+00 8.455981430306171998e-01 3.535033293414325400e-02 4.094199507942986038e-01 -1.474350541311295060e-01 7.399704594170590788e-01 -9.253836399189754314e-01 -1.235051636311570444e-01 -1.162567662881671682e-01 -7.195785556438667463e-01 -6.512350461583888972e-01 -6.185924326005898255e-01 1.407011941155671964e-01 2.909077417673209265e-01 2.931729581150619435e-01 -7.882465843505757908e-02 1.571655769551580928e-01 6.059645901145378488e-01 1.453255698766914017e-01 2.776478422930010459e-01 4.084366924615232541e-01 5.063709062142066619e-01 4.093590612861213729e-01 -4.925305770956694973e-01 9.864234107575515775e-01 -6.326222020887158903e-01 -8.173552168652848948e-01 -7.759738544616662237e-01 7.949283839880620928e-01 -6.179115296016578496e-01 2.298243891256200599e-01 -3.477598849496733174e-02 5.921751096237238832e-01
-8.368794409889342978e-01 2.585808098549582379e-01 -9.509186847920289010e-01 -5.040649814302822218e-01 -6.322474117826285323e+00 -6.931256459872690012e-01 3.739187982453032744e-01 -4.951567172083825574e-01 1.131718328772912674e-01 1.229442839689573352e+00 7.888098604074826881e-01 -4.162213309402286177e-01 -4.918597726884590404e-01 -1.023939486879369198e+00 2.764952673639406791e-02 3.147600186972889236e-01 -4.410617189236821778e-01 -6.361842140972444604e-01 3.506049853217143131e+00 3.223299011227313826e-02 2.211322439703702347e-01 7.761454255464943497e-01 -5.551025829130427081e-01 -6.312986019323506559e-01 4.953729305402712058e-01 4.948600742874194047e-01 9.445066627709094442e-01 8.182678733882748912e-01 -2.542763747425043075e-01 -2.787626473236907154e-01 -6.257524451729159498e-01 -4.325704546646028104e-02 -9.714624559999412989e-01 -4.898808382460914657e-01 1.226509488669601966e+00 -1.397402354126619367e-02 -4.848497529926019678e-01 -8.350050510883825217e-01 -7.654638941998271884e-01 6.809537271177985573e-01 -9.764080668211545522e-01 7.707102579848361390e-02 -4.825274119043931886e-01 8.649298067811472812e-02 -6.119493612310211716e-01 8.067497520268385180e-01 -4.079081676560443182e-01 -1.401251137267193747e-01 -5.796847739656552090e-01 3.904983592452664354e-01 5.795856164152192180e-01 -6.989189312432558809e-01 -3.877776860887693910e-01 2.225302669699392499e+00 -7.681280906353671334e-01 2.799160303619552259e-02 1.381775171228445398e+00 6.977347061919633164e-01 8.539638275530996303e-01 3.459182295428712361e+00 -4.985376571909657661e-01 -9.006047147024095478e-01 -9.656374458927192705e-01 -5.572378144785614662e-01 5.381121784664619767e-01 7.589789547115293189e-01 -9.768236434780575017e-01 1.415392523229206612e+00 -4.937936357187626690e-01 -6.491801685111676656e-01 -7.797930732096070017e-01 6.893239407638418470e-01 -2.401412133396976234e-01 -8.877425899565375422e-01 -5.634166358407131092e-01 -2.659996540414607535e-01 1.021468126231111828e+00 -5.088114888900755473e-01 -6.660855817064982309e-01 -5.279889213342014997e-01 8.614977215052385118e-01 7.718964763106068716e-01 -5.173428344344026542e-01 -6.319451842097871808e-01 7.837426677986509826e-01 2.510214624230172054e-01 2.585595849086622655e-01 -5.053018061338148126e-01 7.120084635139498630e-01 -3.345304298046955505e-01 -2.513931130760593269e-01 -7.092550420430476787e-01 2.797892841503024086e-01 -7.568845646110855530e-01 2.679144008157962054e-01 6.815081264950704210e-01 -2.885268606423828652e-01 -8.149276160026158733e-02 2.250592974361887155e-01 -8.851002782384680412e-01
6.946388683033497546e-01 -6.618042760679727632e-01 6.937057933316884695e-01 4.529937426515404653e-01 -7.074261965289118770e+00 -9.413928945804580506e-01 3.965041527471029337e-01 -5.189088160389419002e-01 -9.398554543887007728e-01 1.382435985018998892e+00 1.501484446696478514e+00 6.250990937689937521e-01 -8.998039745863444239e-01 -6.785278659102624843e-01 -6.166941943776911295e-01 -6.591893738587373264e-01 9.958194425960930074e-01 6.162096032688373359e-01 1.889128809437414125e+00 -5.308934253215705779e-01 -8.875855910872765264e-02 -2.873094165017697765e-01 8.916177769052353597e-01 5.818941161191376610e-01 -8.348485437173980284e-01 6.521660976092480411e-02 -6.194222827965544242e-01 -9.939601501950867668e-01 8.339462214140807017e-01 5.006298932728681095e-01 8.524098953252398081e-01 -4.492582349652248785e-01 1.633548375148778931e-01 8.782213930183211392e-01 1.118559216803801881e+00 5.826249814039294872e-01 -6.315277811369770511e-01 -5.696487832863229572e-01 -7.577164548437529401e-01 -1.533135678729418694e-01 -1.176751273108553875e+00 -8.743979712591145592e-01 3.626545480351806017e-01 -2.397915173760103436e-01 4.930539977271053420e-02 -8.055423411002289313e-01 2.494628525921578355e-01 -5.646580419299914722e-01 4.598228762355589527e-01 6.101345366305694906e-01 -5.800533568540494622e-01 -3.550505469979606810e-01 -5.854864319855019872e-01 1.700776329025515343e+00 2.803020983739837879e-01 -6.956030123919658692e-01 1.060651504356614261e+00 2.194325117422847582e-02 4.129302119083884115e-01 3.217797546737294123e+00 -4.521226282141108666e-01 -3.614220104184140414e-02 -3.293253282824517431e-02 -5.154665783412353680e-02 2.289165980076623697e-01 -7.190987151601353489e-01 4.649773433087656116e-02 1.727364044591007453e+00 2.821709368356579706e-01 -9.291743400063641467e-02 -9.864209967572669102e-01 1.215142673774705778e-01 7.097322838987096816e-01 8.619295879787610692e-01 -8.161435772324090454e-01 9.719068176632091882e-01 -3.085583417053047728e-01 5.962346443111718464e-02 -2.073490407456445861e-01 1.025854325709595560e+00 2.610242142351593131e-01 -8.484645444344618426e-02 4.416356492596644756e-01 -4.952297774920584317e-01 2.705460271569750663e-01 3.395544745331953718e-01 -7.042821806984524979e-01 9.215597010537315281e-01 -3.179332034157631992e-01 5.524583322070448776e-01 -4.502822153892023227e-01 -6.820520986551299458e-01 6.897090267736656344e-01 -9.032991093595605925e-01 -4.976217211071770063e-01 -7.721299282100229089e-01 6.100397080333234134e-01 3.223280741935705684e-01 2.214055294982476829e-01 -7.980975627259137561e-02
8.112550291056113139e-01 -1.021303320061042186e-01 -8.054707816284381039e-01 3.195794516030132648e-01 -5.992710369811238280e+00 7.209781284037721782e-01 9.674718923297450646e-01 -1.318086015304541225e-01 -8.346027831996885027e-01 4.328976573488766411e-01 1.651042962882698362e+00 2.268883656905844037e-01 2.971784066765539301e-01 -2.721557959435961793e-01 -7.003416613491967313e-01 -4.922529247856835544e-01 -5.570333679049405823e-02 -5.446862525121574095e-01 2.693692215638122889e+00 -2.786700515649324639e-01 6.869918303770863321e-01 2.283595920126080259e-01 2.107972863190048507e-01 -3.910246791962680990e-01 -4.306791466372930088e-01 7.614153267863132957e-01 -7.827355286078570284e-02 -9.413060299981541590e-01 4.272306497864386543e-01 -4.784271376662784792e-01 -5.286656535368970955e-01 -3.374006057451371943e-01 3.494623339510452009e-01 2.026049589769632342e-01 7.909632455326123246e-01 -2.249189363789570184e-01 -6.244375153616331664e-01 -6.010469777520369705e-01 -4.362793486734332649e-01 -2.087914303026258689e-01 3.876132272837899961e-01 -9.013853188036480280e-01 -7.083534201127503760e-01 -7.227644299779687476e-01 -6.806884219922155754e-01 -6.830247907085029713e-01 -1.188281176553587226e-01 3.171176037621745714e-01 8.656447278234293830e-01 2.142704565334973221e+00 6.879205559627167288e-01 9.625672684891433128e-01 -3.089298895330780947e-01 2.236216961774600165e+00 -5.316910090199747363e-02 -6.694499605711223822e-01 1.095460166785951150e+00 9.638576396308842220e-01 3.524899620214627660e-02 4.024466555107005128e+00 9.770418562836082899e-01 1.841992673238298517e-01 3.773320526371229944e-01 -5.050715364837037313e-01 1.014376957736056184e+00 -2.164602056234627980e-01 5.821518118554285248e-01 2.226898992833640012e+00 6.294847876695257582e-01 9.991586118700805652e-02 -6.561315553896063246e-01 -5.740708976139655140e-02 -7.143498496112925533e-01 -1.294777459186874091e-01 -6.127179978856982512e-01 -2.316650477666614694e-01 7.431511411160423020e-01 6.131476632226646739e-01 6.158954730692615120e-01 -2.380956763078601046e-02 1.151137162963574934e+00 -4.080089551712107188e-01 9.699915670934804446e-01 7.291858677993969806e-01 -4.153837498168748699e-01 6.811806507411347633e-01 3.063489740275892603e-01 -9.873024970943036216e-01 -3.418634926803515439e-01 2.463293082205580409e-01 2.579637929402994311e-03 -9.400698164859355721e-01 7.508230831202195033e-01 -7.405117996122225765e-01 7.182763793355793069e-01 2.060854530905800175e-01 2.475682210509236314e-02 -8.547462878785856422e-01 9.658592411058658511e-01 -5.770997073451096249e-01
-5.108534897876759739e-01 -4.436016652038401453e-01 7.330140660172297373e-01 -9.288354197560145797e-01 -5.091710386406796296e+00 7.866708505444144350e-01 8.617633761237792900e-01 6.814358122477656154e-01 -5.751177317764644137e-01 1.630783380357072820e+00 1.922204828904456875e+00 5.494649186475664138e-02 1.435479416568787858e-01 -6.875554663136241862e-01 -3.470993385329568248e-02 -6.615800382591915385e-01 1.381243180316654440e-01 -5.550204685774899893e-01 1.735895440840121706e+00 2.868707937327955038e-01 6.086091793012244899e-01 -9.250846659599183397e-01 -8.496535741917743412e-01 6.503390686982470081e-02 -8.781041986155710966e-01 -2.594964337355318840e-01 -5.255083658666290791e-01 -6.760002593005030036e-01 -7.298010721821972524e-01 6.761573860580591955e-01 -1.779582201223314508e-01 -7.567055815351497738e-01 2.680392326361620836e-01 -4.516435781085272327e-01 9.126765980593423144e-01 9.158865335567657473e-01 -3.065285449972176557e-01 1.000711705779155691e+00 4.292163813178008214e-01 -7.903985174649155176e-01 1.415057774821077419e-01 -7.851292031459560228e-01 5.292624866011849116e-01 -9.237666571356477618e-01 -1.679820651522449193e+00 2.564648256952819505e-01 3.785583938741823307e-01 -1.022603760560628849e+00 8.795237162432814060e-01 8.151079716356912641e-01 4.150335797229216528e-01 -2.137452289763314695e-01 2.613144047818347637e-01 3.059629637138258751e+00 3.552287073755200364e-01 6.095452897239201917e-01 1.491195091307042420e+00 -8.151669855547740706e-01 3.242911559641732389e-01 2.545712117272221242e+00 -7.188492353033222315e-01 -1.017857286708158115e+00 7.397076525964815796e-02 3.626873475456299234e-01 -7.391642685532007206e-02 8.648330610350536407e-01 7.953490945047694272e-01 1.210803814883596230e+00 8.461269634455439448e-01 1.466868073453446997e-01 -8.455916071750586571e-01 5.955845653308932119e-01 -5.465830974085836846e-01 -1.877022983780617452e-02 5.217844301214984437e-01 1.248350458014106490e+00 2.542259717436624183e-02 -6.337707466934705547e-01 6.998584566237802118e-01 8.596187208723218287e-01 7.911556130318232460e-01 8.537956533899446754e-01 2.104714413813493501e-01 4.814477352007930921e-01 4.092239564020478948e-01 7.633203411495135260e-01 5.834986831462171120e-01 7.112005732069719421e-01 -8.824208435157151476e-01 -7.397968820324565264e-01 3.811378902031823390e-01 3.073776807999319960e-01 7.866432732083113999e-01 5.658618608488035218e-01 -8.200925452253878811e-01 9.994140151084600632e-01 -6.232219486846641843e-01 -1.553117069236789882e-01 5.237714753855874372e-01 8.314759549172250352e-01
-2.903969559169945480e-01 -8.647009216031424916e-01 5.673611952351860221e-01 6.186772271473930385e-01 -6.071370640663098506e+00 -1.174081345999021531e-01 -1.876626960544247602e-01 -5.909197806749926229e-01 3.227448307252358539e-01 1.899823177864168322e+00 5.532553198623182400e-01 -5.589827142703902574e-01 -3.716331623695716679e-01 2.636096912032296347e-01 -1.694873260298144224e-01 -4.410380014142907257e-01 3.421693966981891877e-01 -3.939179022725771695e-01 1.991863095205360201e+00 5.770455599110885236e-01 -9.989416386634113465e-01 9.115915855052647565e-01 7.794138710909044310e-01 -4.682495497748704882e-01 -3.545189210724319917e-01 -9.584243018547504711e-01 -2.871298779818904912e-01 -8.327240388276802019e-01 -1.746625171964879542e-01 8.448367380509140823e-01 -4.415411464754989690e-01 3.948172137262011550e-01 7.955408349328869644e-01 -2.779972710986150508e-01 8.385068896253398130e-01 -4.446098751041692720e-01 -9.671800128911682837e-01 -6.053582647919476534e-01 -1.415575636272305982e-01 -3.562771348880279798e-01 3.575015699917941658e-01 -2.851119793625755960e-02 -3.107267640502363593e-01 2.555484460334793706e-01 -7.331141562646185106e-01 -5.452931763243733521e-01 -1.911334325466733652e-01 -6.436208300924231018e-01 2.202121667141829775e-01 1.399522955114520517e+00 -6.399555790906475972e-01 5.719583074898925146e-01 6.044518988133118498e-02 1.813918041817298876e+00 -1.029656831759439561e-01 6.326746380925118984e-02 7.247413368574254777e-01 1.066646358777125103e+00 7.939716251178037254e-01 3.201590985059742156e+00 -7.333505866430696241e-01 -1.202516194410054862e+00 -7.410426210207543551e-01 -2.119359880263251006e-01 8.843041950672771989e-01 -9.462663776063773291e-02 3.852123803289038140e-01 2.828904635312593729e+00 5.447336756536795832e-01 7.573279897869130695e-01 8.459498604196677984e-01 -3.146046094939447535e-01 4.519434477607982004e-01 -1.419909434894236211e-01 2.269917664829528281e-01 -6.416563639800210161e-01 6.354208117024895408e-01 7.428973314976414777e-01 1.784286880942501374e-01 1.937520881082667734e-01 7.690108486557294398e-01 1.756671952703656725e-01 5.792382950011865095e-01 -3.346537307718249199e-01 -4.510304121731127935e-01 3.652743212848676840e-02 7.108812838355821340e-03 -7.046408434269320065e-01 5.342971694616854839e-01 -1.387462158899967490e-01 3.378493091481961641e-01 4.456353438635067832e-01 -8.720769157551664374e-01 -2.323380541201671701e-01 1.356620381664710162e-01 5.097502241174778348e-03 -7.005680497794317674e-01 2.226150239580431955e-01 9.721053412584921283e-01 4.654954040661747339e-01
-7.114824786922313571e-01 -4.856097905178233809e-01 -1.801246372741236446e-01 7.538077139315839670e-01 -6.403954377272305543e+00 5.238972888565334163e-01 2.526167007717465829e-01 8.699066722451407330e-01 -7.415639468403110168e-01 8.316614646854110227e-01 2.532637905514473209e-01 2.026429731273318158e-01 -7.583259811328124655e-01 -4.081367415281775823e-01 -3.114538672428546207e-02 3.185737653153692950e-01 3.535483710809832480e-01 2.542257545168236099e-01 2.327563278787045942e+00 1.000755743540338472e+00 -8.793122842742195910e-01 8.078764044884745310e-02 1.022692891115326574e-01 4.712766354501455868e-01 6.046347873769031267e-02 1.693956148712270071e-01 3.951292723196073720e-01 2.765352077721296986e-01 2.890408265738761973e-01 -5.948414596462552328e-01 -1.118108189583888606e-01 4.771935402993734421e-01 -6.644075725223554940e-01 -5.721152553300802301e-01 6.750393878951577165e-01 -5.150938701622934657e-01 2.776360233104466224e-01 -2.756337282296747460e-01 -1.843361563234211797e-01 5.811328367380501625e-01 -4.202535409780469022e-01 1.668660733668515805e-01 -3.578846598146633307e-01 9.400314960465461223e-01 -1.586161272541682044e+00 -4.547873678428993038e-01 4.041489389076515781e-01 -1.263460766692904524e+00 2.489338871707613698e-01 1.979772115550330502e+00 6.838814524922900984e-02 3.966186397210525461e-01 -6.612389253870747385e-01 2.664656158624232773e+00 6.184355669734750011e-02 -3.119338106017788270e-01 2.073486942482420048e+00 -1.306250695615357726e-01 -6.369692689655219731e-01 3.022811737742740146e+00 2.008376777566878990e-01 -7.490360664162549753e-01 -4.182359596757085907e-01 5.440047190420730372e-01 -5.980363349604106427e-02 8.125957712235567509e-01 4.243324166684747656e-01 1.062968331627873741e+00 9.581209211419474681e-01 -5.751133645230025460e-01 2.808938167613341808e-01 3.518381420368612567e-01 -7.873002714344479180e-02 5.086130344683625903e-01 -3.198893038673811251e-01 9.568585776108298191e-01 2.447696472062351192e-01 -5.359309491735999575e-01 -7.829261287876364550e-01 1.840176295068128853e-01 -5.097555748818846655e-02 4.238859408482855695e-01 1.166432118696279080e-01 5.833415803826891288e-01 -2.214163437754717023e-01 1.435768581310629954e-01 -4.712983445196067822e-01 -2.434741770174275732e-01 -7.838867466478796064e-01 8.402915276683007306e-01 -3.266067723511245635e-01 -7.072483257312183191e-01 -3.390017402863422791e-01 3.896119262026369601e-01 8.584216669666083765e-02 1.278302436819971355e-01 -1.722764021516532129e-01 8.392619033621311342e-01 1.060512987875729812e-01 -4.344221421631445645e-01
-1.312645610417596809e-01 -6.745534719885464270e-01 -9.341288854075724402e-02 -4.875965654918718029e-02 -5.886791970408533636e+00 4.921763612670616572e-01 -2.323805893958659219e-01 -2.307599608037003980e-01 -5.601646571741287772e-01 8.296328786733586647e-03 6.000028257269685028e-01 8.241842899764562080e-01 -4.473595964448944251e-01 -1.148979828707878070e+00 5.092644074776873087e-01 2.987605007541394020e-01 -5.530546168592148648e-01 -5.874757596029112072e-01 1.480092041273493475e+00 2.865513525314257737e-01 -7.238380769207797272e-04 -2.332756766306995910e-01 1.569210749058591592e-01 9.546340503439798564e-01 -7.005010946283387607e-01 7.282352554620854512e-01 -1.346714475877681672e-01 2.481926042796295806e-01 4.298657882433309929e-02 -7.646169878866281300e-01 -7.587673374739338783e-01 -7.888546209069183801e-01 -8.016992778533623687e-01 4.408829880461558326e-01 9.685384684423481438e-02 -1.361104954217684238e-01 1.380894303835313863e-01 2.586996653122400902e-01 -9.672593465888308373e-01 9.303417790049433034e-01 1.937689496421206026e-01 6.102928777393374915e-01 1.453738082323982606e-02 -6.853879622860155063e-01 -5.938261617629558842e-01 6.167492324080499078e-01 -6.187256551124749038e-01 -5.754951460024771981e-01 4.225809012737145043e-01 1.870709313320191303e-01 4.013703938941032834e-01 1.091704493575833101e+00 -6.559777206414876272e-01 2.784735161099680667e+00 -6.479546587520104151e-01 7.161352778763236948e-01 1.185552573666455389e+00 -4.094368311022075213e-01 -9.884940513196898149e-01 3.454517590126211068e+00 -5.742716666501416212e-01 -8.467832649496866981e-01 4.123645590664370975e-01 2.329703657104269937e-02 -7.185379881673550351e-01 7.668120348789433383e-01 -1.602604901399939941e-01 1.287745212775491144e+00 -8.630130389395884727e-02 -7.794176828208262409e-01 8.180762919727956328e-01 -5.653100596504424813e-02 -1.005329718323244581e-01 -4.965659407885479881e-01 9.333052672807269357e-01 1.125416004826306215e+00 6.307631475942310217e-01 -9.630304142378812715e-01 8.699545303888066294e-02 -4.781405997570713495e-01 1.075474949871016550e+00 -5.549953895528869641e-01 -6.557327294258417094e-01 8.836121376963024243e-01 6.145950664899639815e-01 -6.279586310450381292e-01 -5.037558797945591582e-01 -6.731922679610713445e-01 -5.405743450916552367e-02 -3.734994359988565438e-01 3.014873061828821643e-01 6.239824575213863689e-01 -9.862238978472410711e-01 -7.109072117730927953e-01 5.164552876235398715e-01 -2.630471865826866651e-01 3.502691932373930284e-01 -7.347533655268421171e-01 -2.863002186659474591e-01 -5.292571423819252274e-01
4.556354219964168784e-01 6.137977743685936183e-01 5.418430081006144761e-01 -6.444195396299454703e-01 -5.286896544925594021e+00 -5.266498850209766491e-01 3.513189598384320877e-01 6.306819999197346149e-01 2.913150204844241475e-01 1.288217897926159150e+00 1.193760727905355701e+00 -3.813550044153357632e-02 -7.631823479897703599e-01 4.441044198323967906e-01 -8.794069621474442933e-01 -5.335983489271578506e-02 -2.022930570812108975e-01 -6.118328076260799442e-01 -2.074083111748804553e-01 -5.000242445029553368e-02 -7.505997220424063254e-01 7.170347620955357382e-01 -3.590779015522764794e-01 -4.574043101242127318e-01 -9.441119004834437334e-01 2.491385576676599101e-01 8.020043041802085160e-01 -1.547690203002409781e-01 6.757139756011298903e-01 -6.520234916688256721e-01 4.861503496763266985e-01 -1.548355044541970538e-01 9.070030563773849863e-01 4.487551564054202413e-01 8.583939085715941442e-02 -2.446945952215129616e-01 9.182855324048462275e-01 7.806097693111055391e-02 -7.861561513907999732e-01 2.646199392147509100e-01 4.081407685014767361e-01 -6.062554110088407278e-01 -3.037477545821078428e-01 3.285512855699719292e-01 -1.328535882196742124e+00 -8.215008647070787262e-01 3.723062044871809917e-01 -2.266463462631593262e-01 -8.871737122794047803e-01 1.370943239294871274e+00 -5.776283413356102237e-02 -2.581675830705777441e-01 -3.327988281632796586e-01 1.326058952203687413e+00 -2.604942493889165211e-01 -9.730710957878996314e-01 1.375056293181712519e+00 9.560342336702888355e-01 -8.066785266805189814e-01 2.375267900031110990e+00 -5.901718929532180358e-01 -2.543375322861428089e-01 5.105162421844982035e-01 -1.082008998919661014e-01 3.013384483823805526e-02 7.003299035022154673e-01 9.890475069434974120e-01 1.271577560993069511e+00 6.353835755664900553e-01 6.490787122259565889e-01 7.525978844002887413e-01 1.761885667925898180e-01 -9.157204676505028562e-01 7.576907777011694378e-01 -3.487602093078461252e-01 8.390691318220774852e-02 -4.045432665494649860e-01 -2.506622013581368269e-01 -2.587222755581121691e-01 1.193243225991388878e-01 1.025896357946235460e+00 4.275911563886958255e-01 -7.355565626384119593e-01 -2.688439211689752639e-02 -9.522744762594519408e-01 8.154932100196545797e-01 -1.386692374462329402e-01 8.650108217663954324e-01 4.404490250955524211e-02 -6.471838674569934113e-01 4.225726266529397090e-01 -8.048164865695757175e-01 -8.062570265549244830e-01 9.146069650503974025e-01 -7.962204878696974575e-01 -1.037909694107481684e-01 -4.810799999120274340e-01 -8.684131674744072216e-02 -9.500783354528462565e-01 6.826869812916459557e-01
-3.663156120591458398e-02 -7.821595688502112065e-01 -7.580187527154156335e-01 -1.024646773148849555e-01 -5.438989042031694865e+00 -1.672614240312813028e-01 9.918710580608225413e-01 -6.876446660539983213e-01 -8.883006333895020479e-01 1.741603153762331324e+00 1.228664992379148835e+00 9.827562617622120911e-02 -5.505841333114851466e-01 -5.807685346804146720e-01 7.508333550817303248e-02 -3.744613986322997690e-01 -6.693459499563799708e-01 4.150033479183938834e-01 -1.312095359165691422e-01 7.841472101832900332e-01 -6.077060067394723930e-02 5.129817361994750691e-01 4.199543664378257990e-01 3.421834195308416926e-01 4.896077756554397808e-01 -1.585604511559735030e-02 9.614532268198308085e-01 2.580850742062730241e-01 -7.768920657551281472e-01 5.703279955230071696e-01 -6.562508444998921275e-01 9.005467021074169409e-01 4.843110041627414208e-01 -3.892691564280972849e-01 9.737586862272190613e-01 -8.633343583655933573e-01 -8.505905332682765774e-02 9.036142741825280433e-01 -9.719661862283364151e-01 -3.879965738196639591e-01 -7.252065347148006769e-01 -5.689421332794830644e-01 9.552219613567983769e-01 4.741044447197415579e-01 -1.814896286017689153e+00 6.838744306604296330e-01 4.074165512452876392e-02 -4.264423100992872917e-01 -6.898176255583832184e-01 7.440977310962356706e-01 7.995649958654045542e-03 -8.217709896633852429e-01 4.056620096976211176e-01 2.595462632835053185e+00 4.315666168880643028e-01 -5.910260129255078265e-01 1.314397314388403570e+00 1.281566902012086506e-01 -1.728634042713530494e-01 3.423158334131814140e+00 -4.979134807885176595e-01 -6.270792527675627115e-01 8.017062405878232489e-01 -2.398518875546405416e-01 2.809919875206239870e-01 5.683005937100871208e-01 -9.437644706653423032e-01 1.650263223282033120e+00 -8.418012938020789093e-01 -7.699522362621817884e-01 -3.522021602203651014e-02 -7.359734228275675028e-01 -2.304833095445466551e-01 1.465978412011823828e-01 -5.099595136610572954e-01 -3.104495582793236896e-01 -1.710832086984648004e-01 -2.432980971106414314e-01 -6.331047242481809834e-01 -2.522751946192629546e-01 -6.050560266945291810e-01 8.488055033133519167e-01 1.366483860160152830e-01 5.475493151665500324e-01 -6.818052014134809991e-01 -2.407336755370302617e-01 -9.010571717951948445e-01 -6.044292540726956542e-01 2.735592624903530612e-01 6.247850719221761384e-01 -2.445430544759265024e-01 1.023857209080691888e-02 6.745590602889901533e-01 6.155017642713551673e-01 -2.008993126444177935e-01 -1.386792866483765874e-01 4.004188352511379723e-01 -9.516928262707677888e-01 7.284709939085358688e-01 1.021796367874381606e-01
4.055029248802393682e-01 5.862557878392933297e-01 2.070031344845446597e-01 5.756003110537968315e-01 -6.506223871510187884e+00 7.738051222838369103e-01 -7.268409045368930954e-01 -3.775089405109564034e-01 -9.850243587819718094e-01 1.416534705045401799e+00 1.709543692338432619e+00 1.077002084698623907e-01 3.047248287150021717e-01 6.512502440589892361e-01 -5.248953628216086464e-01 -4.387805109418534411e-01 -8.569817443986822714e-02 9.238777429093474325e-01 2.679233380778026641e-01 4.781693509993854008e-01 -3.877323711131224204e-01 9.931900440078418324e-01 -4.982522353395437698e-01 5.046115637258469927e-02 -3.746320952581323471e-01 -8.072616824358183063e-01 -5.229553822520398576e-01 -9.922558573811017801e-01 1.176453079686172742e-01 2.173892196054199033e-01 -1.918655807314409156e-01 -2.552614917667385686e-01 1.092615001303132161e-02 -2.260970750647370853e-01 4.130110571505631878e-01 -6.361874271021429328e-01 3.166352669886313698e-01 1.338748417581345773e-01 3.372024394724975060e-01 5.353523212656616792e-01 -8.211361460119125377e-01 -3.670939364763929347e-01 6.752265402054228316e-01 3.633812662996573906e-01 -8.984468399165466135e-01 5.038775661120460381e-01 6.311742067787529109e-01 -1.308813350282770127e+00 7.287589711239346180e-01 1.217190133392864748e+00 -4.520828589282974708e-01 -7.045007622841281680e-01 8.449951765735208564e-01 2.723628718754324218e+00 4.488924257596170198e-01 -4.013280326919410612e-02 1.305471887358643723e+00 -4.258799491188146602e-01 -5.434574171003658805e-01 4.110888829356793117e+00 3.142204894587153907e-01 -7.334863535416656921e-01 -5.269094668564688888e-01 -4.282333883743487113e-01 -4.777221071885496273e-01 2.083205875697982101e-01 1.826271872141109753e-01 1.907436776371588483e+00 -9.721673044412990627e-01 7.217438699474677533e-01 2.814001742887393132e-01 1.464883388882972093e-01 -7.190261278441647530e-01 7.212372200706869130e-01 2.844754300626872734e-02 8.995680874038523012e-01 -6.907480369409746412e-01 -6.350369536325071174e-01 8.599364382201839518e-01 7.329524427982915258e-01 2.797680913925542634e-01 -8.746402356516558285e-01 7.395152492272073774e-02 3.877076268196910647e-01 6.187696356278895582e-01 -2.758728641829810702e-01 -3.797355254484033327e-03 8.798664177312636170e-01 4.508604490767499917e-01 3.380494093674413780e-01 -7.028799798834302059e-01 7.882067791298124071e-01 -2.026403059780330362e-01 4.151543478914689889e-01 -7.098096157858996280e-02 8.082057424214639241e-02 8.596886569131250155e-01 5.415313223280825428e-01 5.785164834577976034e-01 3.316407296675861205e-01
-1.759745275321877300e-01 2.997193029206592918e-01 -3.353127756384628455e-01 -7.005236878093881181e-01 -5.314871755878886717e+00 2.112944733177350987e-01 7.038375760365414013e-01 -9.339281004827977295e-01 4.212011616280557647e-01 8.287880255766921778e-02 1.433206022883907860e+00 -7.133604046550914290e-01 -7.625282918308706748e-01 -1.172228684910620489e+00 4.475091175617600392e-01 2.897856480926663814e-02 -6.354507150006969418e-01 -8.102834396346618728e-01 2.414774503767758151e-02 -7.378847935767400834e-01 -6.191005969404042020e-01 6.953964278139976862e-01 -5.778187999134600794e-01 1.628747729689289936e-01 -1.483606867062721157e-01 3.229691648460031317e-01 -9.441446185786674938e-01 -4.890621749135544150e-01 -9.800016354539240471e-01 -7.518915558202261540e-01 8.376888265129330824e-01 8.152893876735067824e-03 -5.873887287127923518e-01 -7.746246453365043250e-01 9.951089062629947524e-01 -2.437185019271690123e-01 -3.142147826728285409e-01 -6.174555667541782311e-01 2.451098948374763609e-01 3.386728271589075079e-01 -1.019018585360049522e+00 -6.995356836898793118e-02 3.518346401380220700e-02 2.594462318086312447e-01 -1.422998918321801920e+00 6.909491678857684338e-01 8.022746338258626153e-01 -1.160776906508421691e+00 -4.863126065670788645e-01 1.032663927594322573e+00 -4.247646491229771226e-01 -3.339928684899665101e-02 -4.405344299026010546e-01 1.721955762177745264e+00 -9.451032180726975929e-01 1.605803070671965038e-01 4.535537557361438710e-01 -6.906343207376366977e-02 -6.075754447561756422e-01 2.581347845957520093e+00 -4.834267783161759757e-01 1.922594619932382898e-01 6.165418489589407081e-01 6.001813022472969328e-01 8.632318527899133231e-01 -3.855556095143588546e-01 2.461571218206621836e-01 1.473882966736895783e+00 5.977517071199924814e-01 -2.174057880166105072e-01 7.570229190892601157e-01 4.606597242826060423e-01 2.176154563009624621e-01 4.938093595956491999e-01 6.593927283432383657e-01 -2.418442858594173350e-01 -8.484775472081667047e-01 -4.938401713840107066e-01 -5.034181828662676050e-01 9.335331860571403073e-01 -1.448932505703088569e-01 -3.247811616264386636e-01 -3.852118608469292660e-01 2.645513107294277244e-01 -3.545047290530944917e-01 9.254414470865257591e-01 6.126512832191052249e-01 -9.528491629621438364e-01 -6.913744138418083107e-01 -5.531638221416219914e-02 -6.004169685928778533e-01 -4.067511394314016204e-01 9.587201782890932833e-01 4.508932812012658164e-01 -6.824041326516480099e-01 -5.334205629274839655e-01 8.635879473600485134e-01 -6.740895808858126115e-01 5.319470846124658703e-01 -3.676407483888552430e-01
5.350665926017049712e-01 -2.568655341112180412e-01 -7.889741723043866006e-01 4.773450069557205744e-02 -4.600045999722346401e+00 4.755187445124222645e-01 6.859169635068622650e-01 -4.102869027821909320e-02 4.847210947606039877e-01 -1.337083426653906670e-02 1.199137984863935413e+00 3.995113969713199875e-01 5.338341353116258237e-01 -7.821046041797722337e-01 -3.575997058695914443e-01 -1.504652288940440119e-01 5.213241708152864529e-02 -8.042136631756739984e-01 -2.724479565988108809e-01 6.631406689024534895e-01 -4.736952586174665303e-01 5.445416296998637495e-01 6.095392534953107955e-01 5.735635157948408835e-01 -4.428502495725006316e-01 -9.568885430304339135e-01 4.614031705487802171e-01 -2.553363336110883175e-01 -7.524546586306462004e-01 -3.175405748258905980e-01 7.529854172142966817e-01 2.676326917620157619e-01 5.318175659544914780e-01 6.235675700467279148e-01 2.440276417021468025e-01 -7.751057933523662902e-01 -5.543818089568050000e-01 -8.738211197291069210e-01 -2.460564641197946489e-01 -2.346844480929226595e-01 5.789879286325111396e-02 -8.774954408376065551e-01 1.713729258463737859e-02 4.311944436779169276e-01 -4.384810832064721109e-01 -8.329363687129114346e-01 8.322873407775228660e-01 -7.267709977837407687e-01 -1.332083767815173125e-02 2.847481118392682919e-01 -1.390739065036090127e-01 -7.908057496226000849e-01 -9.402705427371798041e-01 1.135052589967908032e+00 5.246468645398891795e-01 -1.797150393386950373e-01 9.700864791454979486e-01 -6.725535552740674605e-01 3.863675970906979007e-01 3.387800364008357601e+00 6.580653248584071857e-01 -9.845814125766642055e-01 -2.907237566299130105e-01 -9.669832240242374199e-01 4.637321333713327887e-01 -1.751635643572546641e-02 -3.274393436210463193e-01 1.334939861213960466e+00 -3.975848565427737569e-01 8.398674336518154870e-01 -3.568690123764104438e-01 6.554535211613335965e-01 -6.150775977209430589e-01 -6.053534506858484487e-01 -1.860363220048122379e-01 8.889422182819844975e-01 -5.127295736692729644e-01 -1.571124568079071693e-01 3.675464078970725468e-01 -1.514937270466207575e-01 4.269315064847750696e-01 -5.805473557754099456e-01 -6.142121128154629517e-01 -1.115916358554727150e-01 3.083073455155178610e-01 4.178582265320112121e-01 -4.205389433148395972e-01 -7.422925485296745229e-01 3.850861098589319353e-01 7.819632404835381578e-01 6.093298009436107776e-01 -2.264430529276062476e-01 6.493156921935637760e-01 -9.514217168467786756e-02 -9.545908442822430562e-01 5.345063924047879222e-01 -2.045779259852887055e-01 5.760441752826643835e-01 1.179478157739425603e-01 2.975059784005666952e-01
5.395112407454111941e-02 -9.326524391540220726e-01 -8.484658739389769888e-01 4.403929859618869180e-01 -4.784500253619518695e+00 6.808884770916885376e-01 2.266714152940132454e-01 -8.815841188290740593e-01 2.559701205668973856e-02 6.656796153635260449e-01 1.583946755616739033e+00 -3.908833465609800051e-01 1.565651040274098627e-01 -1.811757422676665286e-01 -1.966439204371184246e-02 -2.825327787321381123e-01 9.481742423470175263e-01 4.970062486641828592e-01 1.245802768370953273e-01 -8.816016331368345393e-02 9.554478094166953817e-01 4.591227811121001423e-02 2.697587780705732463e-01 4.205585320237416602e-01 -5.894187441612870337e-01 -4.697132118713343019e-01 -9.057057768537999376e-01 7.424485428034870438e-01 6.722703270420837818e-01 8.153035291107688654e-01 5.779893519981869066e-01 8.146276870918998936e-02 8.886133646834015742e-01 -6.277068873878903776e-01 8.402286588962128988e-01 5.764063160107123496e-01 -6.720074305119960734e-01 4.764399383954190936e-01 -1.151204570083605994e-01 1.160399862053986597e+00 -7.267730898123136996e-01 -6.941615386337478544e-01 8.595428249946904797e-01 -5.850580680228893993e-01 1.142931630519604669e-01 2.868567660400342945e-01 4.622379929665272336e-01 -3.403174323410310675e-01 1.412857305529098273e-01 1.000312732050982589e+00 -2.953290736266412919e-01 -3.247674426942621650e-01 8.852182807107282780e-01 2.397355222287948173e+00 -3.745443697166954689e-01 8.552651488003999436e-01 1.008290141262812245e+00 3.290550864251405860e-01 -2.437629896914592642e-01 3.665622347495259614e+00 -2.603650684852629182e-01 6.918115471419361562e-02 -2.349569574871448463e-01 2.371105321507594732e-01 1.933195165441958241e-01 6.492350167085008117e-01 -9.728472800627756545e-01 2.476241324196477134e+00 6.692812238291359073e-01 3.740436369340088274e-01 -2.379805916064297033e-01 5.354330103282573666e-02 -4.489473512403723277e-01 -5.374279389412486285e-01 -3.567585948365530335e-01 5.536683190666047416e-01 -5.574773243760785535e-01 -5.874133539098242984e-01 -9.761954844925427865e-01 4.053270307479664991e-01 -1.817908621866854979e-01 7.107918323925981330e-01 -6.487054988162490599e-01 -4.983638033009518686e-02 -2.804718456759156542e-01 8.914157891710803097e-03 1.002719051319840959e+00 -9.123000522820003955e-01 5.399377052995103510e-01 1.101572278197168187e+00 2.490692407155306876e-01 4.394954299611053550e-01 -7.716810494554711131e-01 -2.953154599033103178e-01 -5.924689377766233223e-02 1.719078899194435017e-01 6.936054509091207354e-01 4.150625115089530137e-01 8.102682320013140371e-01 2.698778250170898452e-01
6.698078620039041864e-01 9.339754281814880432e-01 -8.896749497414708774e-01 4.873134780325161231e-02 -4.477223262812860760e+00 5.449604953219289172e-02 3.073623727876300116e-01 9.641001640058171063e-01 7.615566880875717093e-01 1.690143121176853835e+00 1.693811062214284124e+00 3.040077691085063538e-01 -8.013905495775299759e-01 4.724503563064056388e-01 -9.725973179571858473e-01 -4.927660921942780270e-01 7.271283502634674489e-01 -3.115341641444946408e-01 -7.504376001938052321e-01 -9.211090389012731583e-01 -8.305708445467629986e-01 -9.333186408692664138e-01 -3.320519468502249882e-01 -8.543674572874344619e-01 -9.966400443074268090e-01 -7.128540339532369874e-01 -1.582836236816067554e-01 5.206688313382548117e-01 -1.134510704762121680e-01 1.111920151111203126e-01 7.668005866304065110e-01 -1.680706705624532282e-01 7.211731547848569956e-01 3.340091701771174051e-03 9.730664446563275227e-01 -8.068065542449941452e-01 3.984998964708187374e-01 8.061618880548590549e-02 5.734341029917444654e-01 -5.048485659596677610e-01 2.789215320275739152e-01 -7.979150095802387543e-01 9.506997691639186288e-01 -8.682974168692338957e-01 -1.384420653238041865e+00 8.680811357333937384e-01 -1.952835051870422944e-01 -6.099666624160591244e-01 8.807653147278113881e-01 1.578778684868578530e+00 -9.625001077526419424e-01 -2.218315659534045581e-01 -5.572373188354975415e-01 2.690238053080375114e+00 -9.326972141433047536e-01 8.811977910218624643e-01 1.090847126024985014e+00 -2.777766205647170805e-01 1.986311530240603140e-01 3.735747718980237941e+00 3.803240162825063386e-01 -1.256437643955513828e+00 -6.987624843776787387e-01 6.097118391793396874e-01 -7.067429038210416847e-02 -8.239585879412683056e-01 7.420589266188724054e-01 2.209027437229694080e+00 1.628385388064335082e-02 -9.974731210696764494e-01 9.634844892556628793e-01 -6.308440105619464999e-01 8.984064171832601975e-01 -2.106770516217623956e-01 2.531278487190999904e-01 2.703631396375984486e-01 -7.992206147187979060e-01 -6.669310950973260654e-01 -3.891928885968147789e-01 -2.675263176138132915e-01 8.775762353856921827e-01 2.706779632851743500e-01 1.352499826602256150e-01 7.611548773424174907e-01 2.380718183526076004e-01 -3.535626055050811734e-01 9.042253078534850941e-01 -3.206173431285324060e-01 -1.574786495584900303e-01 1.239782985168561003e-02 2.429408845851580567e-01 5.276606543689037476e-01 4.696133170046333238e-01 -6.494347799167976554e-02 -2.906940313065204951e-01 8.582458017248963955e-01 -2.034548092755605053e-01 -1.587630940259739942e-01 1.748837735076587963e-01 -4.349292248008794215e-01
8.866545884598343863e-02 -1.423369965376397595e-01 2.740927252379508072e-01 -8.170407054339032804e-01 -5.443020647828789471e+00 -7.657832451573243215e-01 3.385016399643525631e-02 5.289297211025298928e-01 9.105965103825881535e-01 1.566437002317946803e+00 1.142430822778063071e+00 5.987032547545372285e-01 -5.282123539343213103e-01 -9.673442533834222257e-01 -4.189023823430280125e-01 5.449582700414119518e-01 -2.226908154585829636e-01 4.178657956462126233e-01 -5.468862663604860952e-01 4.818073902327181801e-01 6.961728090732040020e-01 -2.915362017073352963e-01 -8.169006250128971747e-01 -6.685558185336830384e-02 -5.710627193050101802e-01 1.245386426464794027e-01 3.927750627620003598e-01 -4.774727552454245405e-01 -1.994749993816156142e-01 1.716203798489128740e-01 1.673402935187938978e-01 -3.731216797096444937e-01 -9.662510536674548955e-01 3.010610053607480907e-01 3.906491385143350259e-01 5.170175174169193699e-01 -2.566731401571280546e-01 -5.059780887313166664e-01 5.917086621483185205e-01 8.011748859929304079e-01 3.167175492807218773e-01 2.245414108261263031e-01 4.139875945142876268e-01 -2.521638231174410105e-01 -8.569148826409787034e-01 3.723924692424809280e-01 3.473887297338147384e-01 -7.138230656940003360e-01 -8.478007780636234170e-01 5.002775006141246816e-02 -3.453696408613321500e-02 6.972930938640314880e-01 -5.159753007204281872e-01 1.869238495313193971e+00 3.612669514055105169e-01 -9.361879528701344544e-01 1.857735890261788203e+00 1.102504368408663504e+00 -9.269034524467709701e-01 4.018949640218074215e+00 -2.374340295245693788e-01 2.660966214447070266e-01 3.635423820930629990e-01 -5.789486042438573010e-01 -5.022961138062866926e-01 -4.669797443296959116e-01 3.713144398989003392e-01 1.614514454397294685e+00 -9.055585043850882254e-01 7.550000861632290006e-01 -1.636001360620809031e-01 -5.968587217131055001e-01 5.596305686329139384e-01 7.760175259076644849e-01 -7.554131129840528924e-01 1.621991443171925396e-01 3.724882823961568890e-01 3.473548875985801310e-01 8.247271306486848585e-01 -7.655330648574768526e-01 9.483087154667633190e-01 -3.263011294483941782e-01 -7.313344833256536504e-01 -5.714195606857590537e-01 -6.549689090943728864e-01 -7.317181390334193125e-01 5.127205710821964857e-01 -2.702381343806257163e-01 -4.872771036518026566e-01 -7.039985533727087519e-02 6.763991117046312673e-02 -3.272461785965334879e-01 1.382985475198251490e-01 -7.924310690304863236e-01 -9.589427788370651351e-01 -7.711990779118265138e-01 -5.680093363258885697e-01 4.446862413028835337e-01 2.999054629479393497e-01 6.154291617758571586e-01
-9.439755000744844970e-01 1.111598512242097936e-01 8.153871039245430552e-02 6.576313943823313135e-01 -4.022369432185003646e+00 5.062370363191084355e-01 5.456322089339606940e-01 4.044970422644356134e-01 -2.221547604963824973e-01 8.980477170601866010e-01 1.481662436547037220e+00 -3.597062245007707215e-01 -6.176955749281922703e-01 -6.082129195135170807e-01 -1.742369719275849160e-01 6.304948831864352066e-01 6.016075692053971524e-01 -9.685006607577344440e-01 -4.999235256766212387e-01 9.007281365190732414e-01 2.904985668684612055e-01 7.890569078030924555e-01 -5.131409624863914054e-01 6.612318727610806690e-02 -7.712635111717820457e-01 -7.256721731852189272e-01 6.311967517026428887e-01 5.495370106280510480e-01 -2.179672628011999347e-01 -3.525694409924220452e-01 -5.406318700889803930e-01 -5.493909759934183512e-01 -2.662324332878720501e-01 5.125469764398113970e-01 1.327466814678859297e+00 5.458999335054486313e-01 5.966570743044681269e-01 -8.608395947008318227e-01 -8.679711510475738301e-01 7.577373545749610528e-01 -5.256378709527961268e-01 8.787759437670847329e-02 -6.014459147695951913e-01 1.878943584231975716e-01 -6.376714675018426703e-01 1.531596076629115899e-01 6.483722053278595521e-01 -9.868021044846081447e-01 8.419743908341281724e-01 1.045086923719920957e+00 -1.227828822320037871e-01 -1.208583526798190227e-01 7.314257908700148025e-01 1.936272714396471528e+00 -1.899259145273756583e-02 8.188023432608231289e-01 1.331965789635500386e+00 -4.115534003207855784e-01 -5.061104274744709919e-02 7.607699705240840160e+00 -4.219800640203575370e-01 2.585037893814273735e-01 1.711504806638448617e-01 9.013354677228182510e-01 -4.608773018522569487e-01 7.821928643456745878e-01 -9.795294581761673225e-01 1.762705332475074771e+00 9.298819037773773388e-01 -3.359772739427006605e-01 -9.354359074219615877e-01 9.749946914472501502e-01 -9.404723208283385372e-01 6.367638850634906866e-01 -4.563182021855607395e-01 7.285917141320852330e-01 -6.998916998225600539e-01 4.227999279033474167e-01 1.477012852487039340e-01 6.800566064335757943e-01 -2.281265812485047673e-02 -7.442699241866148618e-01 -2.256283803090280704e-01 -4.960372377738209160e-02 -6.603633613261761237e-01 2.278758059972484096e-02 -3.478914707765183856e-01 1.128595703066099798e-01 4.035557729347253458e-02 2.307171827467990877e-01 9.335996744295106398e-01 1.569670346915126302e-01 6.652038935127414510e-01 -8.721002521154184173e-01 2.441507221357822333e-01 1.291328263053235226e-01 -2.874622500817012871e-01 1.057392308470462006e-01 3.620077236159507383e-01 -9.790079189466568410e-01
9.133367736493908096e-01 3.627809432118069832e-01 8.244922817903406198e-01 6.019474084569658157e-01 -4.570686506427080964e+00 -7.720565407365576061e-01 3.799631828915706055e-01 2.042542756306531260e-02 7.199121841332578597e-02 5.651410322469584413e-01 1.897480430122100437e-02 4.591878326594707183e-01 -8.301616394778441599e-01 -9.980533482352809127e-01 -8.897479494347222406e-01 7.779988610507899693e-01 -3.408781015037544160e-01 -1.173698250540042842e-01 3.566262438444791072e-01 -7.203259302348756776e-01 -6.285722209983073405e-01 -4.005997083315919749e-01 9.757304386775762506e-01 -6.333863366269067985e-01 8.097923589358884122e-01 -2.084719092152444997e-01 9.386373162571164386e-01 6.638663437900236275e-01 -2.491665662627957634e-01 9.398233992061282294e-01 -3.714637172831160572e-01 -4.017633247972680621e-01 4.687225346941801263e-01 -3.678872306846309170e-01 1.437845055355416068e+00 1.355692625371603399e-01 3.214215220012981433e-01 5.724310956050477905e-01 -2.475016288184013202e-01 4.015184508328873414e-01 -1.112117009583926397e-01 4.393036546477808169e-01 2.121188703926858710e-02 3.602927575590557652e-01 -6.852230927523481618e-01 -8.985269068896282185e-01 7.925440549516504785e-01 -4.943443558306749308e-01 -2.382216096765099600e-02 1.762634155324976692e+00 4.100535823725524887e-02 7.102667393128044848e-01 -8.503398494692218090e-01 9.429257764345215787e-01 -1.888515137446306613e-01 4.980438453218818395e-01 4.242338565480738288e-01 4.755298471586418829e-01 -1.052695679000621443e-01 1.118611361792104475e+01 9.311059698786624539e-01 -2.500396844408550034e-01 -5.824804797000675549e-01 2.529123436417660131e-01 8.235236881836964506e-02 7.475984220886675580e-01 2.273200719850061446e-01 2.046259266543447364e+00 5.541930180484007096e-01 -4.561461316983118630e-01 5.967512543401003455e-01 9.095458914170563292e-01 9.915040148031710743e-01 8.579298552479848183e-01 6.192997995280062895e-01 -7.614059958512875426e-02 6.645138253044962084e-01 3.537723259783104313e-01 -6.847620074598774753e-01 7.255410841241725084e-01 -7.530353528255352424e-01 2.169450543289228595e-01 5.558593417741424236e-01 -8.345689927553556764e-02 8.068959455736526287e-01 8.150326981981484975e-01 -2.813474792192677265e-01 1.210477139275778491e-02 3.128623621878834915e-01 3.818735353866979931e-01 3.837365436571874011e-01 -5.080045410079043755e-01 2.106962366549054722e-01 3.059843063185043732e-01 -4.653121709307975890e-02 -9.577688174833771662e-01 6.495204751855017111e-01 1.136650988423353326e-01 2.325249685200863337e-01 -4.114964216864003266e-01
-5.089489682640305768e-01 7.489359703011351233e-01 -8.871918087858576829e-01 3.945088065220716533e-01 -5.662645805577897207e+00 -1.913024261654623359e-01 -4.615053532778197187e-01 -6.572828964537078544e-01 -5.187485231333477387e-02 4.625998974655187723e-01 1.582264119821678694e+00 -6.713277114207991669e-01 3.306943173699190552e-01 -7.672808938798356682e-01 3.614522854199835322e-01 -1.555380343349670458e-01 -1.007811294027811111e-01 -1.409450738948443416e-01 3.380405016618539094e+00 9.597241273460344058e-02 -9.463955272038597766e-01 -4.977223170352802484e-01 -9.466532813931090029e-01 8.091691334938122537e-01 -4.934088318578377930e-02 -4.230709982239764244e-01 -1.639573928019546489e-01 -4.425727309893188188e-01 -9.377036736035515574e-03 1.737019108849948701e-01 5.136166802848739499e-01 7.246048777090272064e-02 9.800794925834650506e-01 2.655682630219586837e-01 6.370863477108519302e-01 6.674572191200228710e-01 -2.053802211682954626e-01 7.405393101976414094e-01 -7.670191260676841871e-01 -1.844949507611373940e-01 -4.208380674448175540e-03 -3.240497729959065376e-01 -1.055581074037404143e-01 -5.933883444889054282e-01 -1.176331167435685332e+00 3.087697244567066956e-01 4.157174729598167584e-01 -7.439795340417978409e-01 5.096639993681095770e-01 1.566659005767802926e+00 -1.389995513932680560e-01 7.973567720446973484e-01 9.690842541428608126e-01 1.729574555105092060e+00 7.424051782116850573e-01 7.993830050106249807e-01 1.484706442091631384e+00 -7.415335874260119420e-01 -5.888872565284697380e-02 4.154149470976400416e+00 -9.432783799394575119e-01 -1.054307812765113983e+00 -6.999839215357137601e-01 3.302409565861919583e-01 -8.138862710314915816e-01 9.117451385112640416e-01 -1.035495116805482674e-01 2.813823769740119385e+00 -6.962685013730056660e-01 -8.172121626911741377e-01 2.236114415385315191e-01 -4.038464754912409783e-03 8.652075949407367350e-01 -1.992478354445878785e-01 -3.108918471695432117e-01 1.049736654544492165e+00 5.700637745725805061e-01 -1.119156378379916328e+00 6.793409973075699160e-01 1.380599720919148399e-01 1.205750875138546396e+00 -7.109856748591827369e-01 -5.940705755039275004e-01 -6.755697416241779329e-01 2.452691498748829080e-01 8.430199690451086747e-01 -4.550862728575798544e-01 -2.355035598245449613e-01 -1.218024141765709639e-01 -6.642687900093418030e-01 2.310172791727147790e-01 8.436076438436812541e-01 -2.956318284973048494e-01 8.461045534291846693e-01 -1.178835264047813636e-01 1.947254691191280251e-02 2.787843643566375040e-01 8.913348516180480408e-02 -1.356380835252113948e-01 1.670812284390812696e-01
-3.247313991471312833e-01 -6.563287077490753685e-01 -3.444865858126628932e-01 -8.129323957806784406e-01 -7.003417886993081432e+00 -7.665361301350182011e-01 6.599710678469334901e-01 -5.266181318164722125e-01 2.523014272987296192e-01 6.609303917489979252e-01 1.374195845058162613e+00 -9.156293518695879374e-01 -4.560250995899444160e-01 1.268975395979908549e-01 5.774561509727658137e-01 -6.821266073902763072e-01 -5.221538907660503437e-01 -6.575936533902919656e-01 3.715687993130667888e+00 -7.253230353897750504e-01 3.669542766571802783e-01 -4.420125233214804439e-01 -5.389357719005707370e-01 3.075909697380784791e-01 1.073541666039112830e-01 -6.429339034992698210e-02 3.589421757652555556e-01 -5.475783763537811488e-01 -3.322473272774919550e-01 -9.378820593320669197e-02 4.407748209091123526e-01 -3.409187895671605961e-01 1.184675215656674219e-01 -3.488983893921883683e-01 -5.538272803908996789e-01 -4.736214099427366736e-02 -5.479725617201444132e-01 -7.870949911924387532e-01 7.346670834804029937e-01 2.800691563479297819e-01 1.278833323683762346e-01 -2.338495033925427902e-02 -4.501337054265002746e-01 1.388929200681809917e-02 -1.469366609728372852e+00 -6.549954393689105814e-03 2.077809592340043032e-01 -5.217031836182950411e-01 6.280020350804946805e-01 1.409441504108729593e+00 4.302662735865500077e-01 -8.522818728288092394e-02 -5.608444523262587911e-01 3.002438773294668461e+00 6.623877279292312847e-01 -5.039280360607254483e-01 1.780804377600226029e+00 5.867789590493223129e-01 -5.528165165801599557e-01 2.412365760809610293e+00 6.082047413946424230e-01 -1.368281298050627814e+00 -6.257214405547582847e-02 8.843422947214011343e-01 -6.662591311294217000e-01 6.642036656179368670e-01 5.268573820440005662e-01 2.460975817143103761e+00 3.332329022753146575e-01 -4.708123858470790180e-01 -4.034800519198722402e-01 2.406328700216984751e-01 7.569246103137066140e-01 -8.448709809685761574e-01 -6.460578652477682038e-01 5.548025228990702828e-01 1.009840400035114660e+00 2.272065754922503178e-02 -8.331252977981720154e-01 -3.880206785315293283e-01 9.551554472059173850e-01 -3.712550774283740473e-02 -7.396456494023764261e-01 2.888389723542943432e-01 9.141790185181688511e-01 8.114485712877937962e-01 -8.980106904175107208e-02 -1.924556759221582869e-01 7.360871891804124934e-01 8.935927659125217914e-01 -9.077853581586013687e-02 -7.677283057162735957e-01 4.940371545920699825e-01 2.584282618076976235e-01 -6.387595029162526084e-01 4.765090338939346193e-01 5.256748258884335057e-01 -3.484508998850471828e-02 6.899563429497024281e-01 9.420607150356383741e-01
-7.601051930642471754e-01 -3.702226356958009390e-01 5.830904135404157973e-01 -7.884216427299624019e-01 -7.112077496147536593e+00 -3.813553453090463563e-01 -8.669356798769101147e-02 -9.309881713554324367e-01 1.578449461537030363e-01 1.722579110094532684e+00 1.052990902704772580e+00 -2.164631324614907371e-01 -7.847165772102668857e-01 7.531999234422102063e-01 1.288726433652931380e-01 6.754060701513164844e-01 -7.614332541524112541e-01 9.197871374674411182e-01 3.300458174923368126e+00 2.827200416436772556e-01 -1.055459963842131366e-01 2.421156238385158144e-01 4.396561671425376350e-01 -7.354231862538349596e-01 -5.313970897171798047e-01 -1.906081567743969085e-01 -7.861434779709626230e-01 4.423856058904949151e-01 -6.320669362526496471e-01 2.654714094067767149e-01 -2.863587478372660033e-01 1.098066103982010544e+00 -6.946669061576644655e-01 -2.511872743975711586e-01 8.555837805228947435e-01 3.224010239450323945e-01 -1.101540238069274036e-01 1.063065826335227726e+00 7.284348228077999199e-01 5.418601262276417918e-01 2.445144211331266026e-01 1.259502758619729657e-01 4.676294196935830150e-01 -4.169461489000292342e-01 -1.208738057731846949e+00 9.568114516670427339e-01 8.685095863992930987e-01 2.624575623851171935e-01 6.953781614666199040e-02 9.436818739271710665e-01 4.395073078929996879e-01 -5.279916742049198253e-02 2.375511658508022705e-03 1.887721596911230204e+00 7.250733358291343578e-01 4.416919121039015739e-01 1.446569340894320543e+00 3.052210461492607108e-01 -4.163300313963556043e-01 2.942973658291284877e+00 9.465103536568225673e-01 -1.878211638720772569e-02 -4.987375557352673461e-01 -7.773037553786853182e-02 -2.482316531495373357e-03 -7.090580459502522359e-01 -9.252686285889146767e-01 1.390702241647210569e+00 -9.282589013133228928e-01 -4.112537747278628975e-01 6.045197804662347796e-01 3.742984942902771728e-01 -5.479124969680593260e-02 6.015107018930845317e-01 9.959828274058699638e-01 5.501965939777671011e-01 4.477498838499178180e-01 -4.975746248132845162e-02 -4.742930513182238572e-01 1.032202264072897280e-01 7.957374487053661127e-01 6.519635445156237719e-01 -9.919797324926251658e-01 4.859038996432203383e-01 4.421876333929646297e-01 -2.753784520448541717e-01 7.661471111856598126e-01 6.518939888760508783e-01 -2.081947393273520519e-01 -3.301986203665800979e-01 -8.428303826491510484e-03 -2.042960312909625209e-01 -1.476047767443932068e-01 -6.798569400675442687e-01 1.949922393495276407e-01 -3.914026781293136192e-01 -8.099605592037468771e-01 7.404453337293919191e-01 5.420870519486653549e-01 1.505246998621409815e-01
-8.030320969146722554e-01 8.258068491097401154e-01 6.123397901620439843e-01 9.447738058568271313e-01 -6.965231865650972409e+00 5.321979972539219172e-01 -7.148481148654932671e-01 -4.603654943363890695e-01 8.933746122946799595e-01 5.749128382117429936e-02 1.313812482007619353e+00 -1.554166860031784836e-01 9.338831497306536722e-01 6.996623811425396466e-01 -7.521508801679388512e-02 6.738690159298657001e-01 -1.702075963577710238e-01 4.029922643460637222e-01 3.155777212253258135e+00 -2.500665479196084728e-01 -6.396724572559469024e-01 -5.952071961388447630e-01 -6.448411418880750645e-02 -8.484020500274906673e-02 6.672735457916090240e-02 8.638068724778200647e-01 2.284137005429407452e-01 3.628444023890908809e-02 -3.426910550190576110e-02 -8.738611231081334640e-01 3.322063109436588779e-01 -5.243665017152043806e-01 -6.221473669762289660e-01 8.527444673539223974e-01 -3.712162377317251294e-01 -4.779496932458405789e-01 -4.345148066970673240e-01 8.861671753201070256e-01 -2.978304379449556727e-01 2.169869006406235368e-01 -1.789182946371419836e-01 5.423349057389488248e-01 -2.763374460254140463e-01 -5.356678992758359126e-01 -9.584577777101433993e-01 -8.981149984929035490e-01 6.984164575113556150e-01 -1.161709068269087819e+00 -1.181618068706837832e-01 1.786136750775493276e-01 7.673255540793111340e-01 1.105593622638913143e+00 -5.985681020813178321e-01 2.257511883829978139e+00 -1.927990035467217755e-01 8.973277425561849707e-01 7.787902150993577521e-01 5.934681639379936202e-01 4.614025420146827816e-01 2.572122328481649234e+00 9.644292282131929905e-01 -1.831350782289791201e-01 -1.170497798036305021e-01 -4.137288961470531601e-01 -1.920171260866979368e-01 -5.650106529424450130e-01 7.803559265434885095e-01 1.703981705738216945e+00 3.838706587335534159e-01 -6.277192390038548453e-01 3.023055375960985725e-01 -5.312028450390563483e-01 3.288779188533030862e-02 -5.606865831443210713e-01 8.640248505623915332e-01 1.064502398156557339e+00 6.742358449111720553e-01 5.031158174926156912e-01 6.478888625503380627e-01 2.908700733660700699e-01 -1.617150648152092252e-01 -8.097616483848442126e-01 2.007633261289767657e-01 -1.790961223399669677e-01 3.383429935870683192e-01 5.201729025039217857e-01 8.705067010216234191e-01 4.282795669398040683e-01 3.641930246748033562e-01 8.164414823447243563e-01 5.368974850466255999e-01 5.179362632650408305e-01 -7.389119175121240390e-01 5.808289903661378872e-02 -1.513765199673731132e-01 6.861369039704454664e-01 -4.314722053150268910e-01 -5.342534970023693486e-01 -1.926234208117404145e-01 -3.457710967419442283e-01
-2.551928768023309368e-01 7.105009374183397508e-01 -3.786308605866235411e-01 -6.541215511065971988e-01 -8.283638725381791801e+00 -1.248598459324263832e-01 -2.435423332147201858e-01 5.708912806920629635e-02 5.339295612305483552e-01 4.531054642470426774e-01 9.160179023476869853e-01 -6.062691438775460462e-01 -7.339918788364403479e-01 2.307743278707286017e-01 -7.298595530797746811e-01 6.357024986178250181e-02 4.228729532203245878e-01 8.454850314277262413e-02 3.105989726802920181e+00 2.988623277982879745e-01 -7.488249248122809121e-01 -9.711042983399580386e-01 -6.733227340106222591e-01 -1.477395927739369452e-01 -6.354744297667473951e-01 -2.847669955997045310e-01 -9.646013855949100435e-01 5.541550395920546990e-02 -9.404596049567544025e-01 9.387969289517639204e-01 4.954256645212278820e-01 -8.378679750106429736e-02 9.557989704987506219e-01 -9.152226100920854979e-01 2.560950863524646959e-01 -8.902020723282547676e-01 2.700589492449914086e-01 2.217825148672941393e-01 -3.041723037036172528e-01 -6.971291835930979452e-01 -1.135278145947604234e+00 -7.265589213268168756e-01 -3.345656051424604205e-01 -3.336958149062139167e-01 -1.278782247804046701e+00 4.946242231934032674e-01 -3.929504555387650644e-01 -7.584298598186143270e-01 1.125685798842190888e-01 1.442652944293356887e+00 -8.894815709756808131e-01 9.156916521684335120e-01 -8.392212846624134137e-01 3.009161092212073729e+00 -8.288828925955556148e-02 -1.198841542405622018e-01 3.913517747030188509e-01 1.522909596623370498e-01 -4.666820734415599858e-02 3.937783725590162653e+00 -8.389986209407334083e-01 -6.274716454847166780e-01 -2.118130095355124087e-01 4.077851431259686410e-01 3.902429581237746858e-01 8.321040454644483830e-01 4.478585314511711601e-01 2.323144910932108953e+00 7.227787807535335229e-01 -9.171018555355164859e-02 1.940018047572009685e-01 -3.950006336206302038e-01 -5.550990300467817384e-01 9.519848426836308164e-01 2.234879759426195989e-01 2.586209420057097308e-01 -3.569045995691396134e-01 -4.746444593929116662e-03 -6.363218839658866255e-01 8.889822328993044476e-01 7.478996679344050991e-01 -2.411908314433257594e-01 -3.236731984756887476e-02 -6.331919257454721173e-01 7.174608979894836480e-02 5.219603439708538906e-01 6.825538148046219611e-01 7.590656112739999628e-01 1.008969904828049546e-01 8.930542554161273738e-01 5.560995831375861176e-01 -8.219297474227762468e-01 1.557404823965055085e-01 -2.921549041501891875e-01 6.943880008449421215e-01 -9.353211110502286374e-01 2.120175344174175525e-01 4.494591964606796108e-01 -5.147353485155790054e-01 -8.685635179756009960e-02
7.397143133278754057e-01 6.902380673659114230e-02 8.462708473545133003e-02 2.328213016519258272e-01 -6.730556395544512682e+00 5.278649068029397373e-01 -3.832308387778922132e-01 -1.182239737449009009e-01 4.138839785610965993e-01 6.099849713546265928e-01 1.526130653757023392e+00 9.132258777147272966e-01 -7.684671853618936233e-01 -3.669519718442506573e-01 6.746703471640729255e-01 -3.030360369308739976e-01 3.902716940187279104e-01 1.873676321847184134e-01 3.484167873217279165e+00 -7.558314860257381307e-01 -3.384250918101343597e-01 3.811504193063963708e-01 7.325820934991682520e-01 -7.067643036989006422e-01 6.988353863194558535e-01 -3.682975220808801797e-01 -3.583660359267675233e-01 -1.981917006347766463e-01 7.842042572263068223e-01 9.411170226954863605e-01 3.570152276892402665e-01 -7.574312448638542694e-02 -7.954872374090695697e-01 -8.152470355709525718e-01 4.655498483605939875e-01 7.983228266635825632e-01 -2.972330485251228893e-01 1.900573942337641931e-01 7.626706673918992596e-01 5.955178647274088632e-01 -9.355394492607129742e-01 8.173219579723350892e-01 6.713739151461283194e-01 -6.912112620809294228e-01 -5.309185521409005570e-01 -8.367652822554683123e-01 -3.598578100832692250e-01 -1.072340697029403378e+00 6.429825058954425909e-01 1.330610135148935669e+00 -1.034510420483670118e-01 1.139474293000015404e-01 -9.776895786439465663e-01 2.100425787333748406e+00 1.147452366147358044e-01 -4.885093065593555384e-01 1.598508609183772577e+00 -5.855265672957240541e-01 1.363515609334102763e-01 3.658817743989491778e+00 -3.091441734174166234e-03 1.620862444820124759e-01 7.480841804679800866e-01 -6.057119964974980869e-02 4.401493867328279963e-01 4.502894947835995865e-01 4.402541385670748486e-01 2.532594804752107631e+00 6.456060137061212512e-01 -3.848925188931563990e-01 -8.730091882457187147e-01 2.356391040541512827e-01 -5.433319287760742800e-01 7.316883786115722099e-01 -5.504243747284585098e-01 4.736123724100028687e-01 -7.076253953231704807e-01 2.217697070087051858e-02 -8.851357538789692558e-01 -7.509340610954601258e-02 3.942779581739475070e-01 2.155414704530969061e-01 -3.060229832894432178e-01 1.764019202377955509e-01 -8.379814473599378477e-01 6.219332473885935686e-01 -8.978585120469495529e-01 -5.160020145771948563e-02 6.829493422036567729e-01 1.276622922650869907e-01 -4.974393609478742206e-01 7.448867324804244738e-01 -5.961631877109588862e-01 6.052542104802332013e-01 6.680460547197017984e-01 -8.991499020272686327e-01 -3.143656503874071584e-01 9.191960534979255470e-01 -9.240244982309454569e-01 5.765529084816081173e-01
5.645442831590632982e-02 2.092860403941361191e-01 4.943416237880395858e-01 8.253899180429418170e-01 -8.189212769156064553e+00 2.095504847800653270e-01 2.124127082535631761e-01 2.606101317246882765e-01 5.085568601914081110e-01 1.659566581969780241e+00 4.138242807635155174e-01 9.430896098056040788e-01 -2.627302447152957132e-01 -9.165204348175441940e-01 2.036202940013536189e-01 4.283744019335691267e-01 -1.190292236240402535e-01 6.284922258990273125e-01 2.592392318361611103e+00 4.041274330582503849e-01 -9.950321855924286751e-01 -4.706741027497995944e-02 -6.035400701147777269e-01 8.933685368604458166e-01 5.235404232508162892e-01 -4.278676745063967335e-01 7.845557053395266767e-01 -1.875740815636326442e-01 9.405108763213281264e-01 -2.161525324451611940e-01 -4.373327916285080774e-01 -4.792798693726117998e-01 -7.600128052049348604e-02 -7.250622919145441880e-01 1.397488215623237107e+00 8.440389908119040330e-01 -8.421557424548412607e-01 -3.381086950372941824e-01 2.357634469428340207e-01 -7.977264826323675617e-01 -9.197448173937927685e-02 -2.231001684292101273e-02 8.303107346684834855e-02 -6.726404211990413273e-01 -1.168759078687700237e+00 9.461668650139982706e-01 -8.521247098079753890e-02 -3.005900319588064584e-01 -1.201249807326425501e-01 5.333238009702903071e-01 -3.590348565875525200e-01 2.029731081442927021e-01 2.948231553959403950e-01 3.206795643052007705e+00 2.687611646340980487e-01 -5.896265512438292333e-01 1.376822050037522338e+00 5.752919507768746721e-01 -3.350219690661662142e-01 3.520375536679777095e+00 -8.836238803694379529e-01 -1.417969225024957036e-01 -1.896945935201532069e-02 -5.812465436529667961e-01 -3.200851889437753561e-01 -4.613842869183428785e-01 -7.378310566700354567e-01 1.234540196541302315e+00 9.225400704715891465e-01 2.150044559661361820e-01 -1.722994100139918494e-02 5.187288551377423618e-01 -2.405570942369834597e-01 9.580051788285497416e-01 6.470490536206332521e-01 6.384995697463650144e-01 7.030760468217044368e-01 7.513991432966781181e-01 2.330846305052908241e-01 -4.856751337683434810e-02 4.474068655922314730e-01 2.287524225870389838e-01 9.237532321008503633e-01 -9.758405135436820643e-02 2.349230686640277899e-01 -5.576325058529998380e-01 9.466114137478378598e-01 5.646385883414024587e-01 -5.211104668739515722e-01 2.654655767603586458e-01 -6.073484585723771811e-01 9.027165072059613049e-01 2.532801654964604854e-01 -1.623204315923971741e-01 -8.268551403737213201e-01 3.051682010276053347e-01 1.067632498819880649e+00 -9.409551948662586707e-01 6.884639839763009306e-01 -4.350717815616799398e-03
